75 100
the -0.00054287195 0.00024513426 0.0050842934 0.008996611 -0.009295669 -0.0071302573 0.0064482708 0.009002727 -0.0050230846 -0.0037836274 0.007375692 -0.0015654868 -0.0045489585 0.0065527516 -0.0048549795 -0.0018374068 0.0028803986 0.00097215775 -0.008265447 -0.009464382 0.007317773 0.005084463 0.006786879 0.00078112655 0.006337149 -0.0034050469 -0.0009722464 0.005767636 -0.007539331 -0.0039369036 -0.007504762 -0.0009482026 0.009555493 -0.00735187 -0.0023268105 -0.0019168598 0.008081088 -0.0059370496 3.0442925e-05 -0.0047612027 -0.0095982 0.005005567 -0.008779714 -0.004384659 -3.749622e-05 -0.0002964931 -0.0076676034 0.009602017 0.00497981 0.00924124 -0.008132098 0.004480799 -0.004140338 0.00082578365 0.008505667 -0.00447551 0.004541015 -0.0068031456 -0.003569679 0.009380055 -0.0015846187 0.0003219396 -0.0041285306 -0.0076723597 -0.0015165797 0.0024978428 -0.00088842155 0.005535293 -0.0027631333 0.00227055 0.0054580066 0.008346736 -0.001423086 -0.009195037 0.004392087 0.00055941805 0.0074347267 -0.0008199271 -0.0026526365 -0.0087542385 -0.0009018401 0.0028425297 0.00538984 0.0070475847 -0.0057298704 0.0018375578 0.0061118044 -0.0047759786 -0.0031057461 0.006803808 0.0016636128 0.00019835118 0.0034659998 0.00021766538 0.0096477475 0.005072649 -0.008914619 -0.007037673 0.0008768772 0.0063854973
. -0.00861746 0.00366939 0.005183809 0.005739789 0.007477638 -0.006173009 0.00110302 0.0060551576 -0.002839795 -0.0061790235 -0.00040958152 -0.008379023 -0.005596115 0.0071078003 0.003359414 0.0072265975 0.0068012965 0.0075320746 -0.0037836106 -0.0005667841 0.002351689 -0.0045153587 0.008387894 -0.009857042 0.0067630126 0.0029140688 -0.0049364967 0.00439548 -0.0017446049 0.006708773 0.009966132 -0.00436416 -0.00059916376 -0.0057102665 0.003849916 0.0027941933 0.0068938485 0.006099982 0.009526162 0.009273342 0.007901583 -0.006990739 -0.00916214 -0.00035351742 -0.0030989747 0.007892794 0.005935753 -0.0015527263 0.0015094661 0.0017896917 0.007827707 -0.009515448 -0.0002088584 0.0034679128 -0.00093736546 0.008381889 0.009011865 0.0065343296 -0.000715621 0.0077068815 -0.0085385125 0.003205995 -0.004635619 -0.005084984 0.0035907521 0.005382736 0.007764649 -0.0057688174 0.0074287932 0.006625618 -0.0037137226 -0.008746605 0.0054410696 0.0065127895 -0.00078546215 -0.0067180516 -0.0070874565 -0.0024957466 0.005139209 -0.0036640365 -0.00938629 0.0038303582 0.0048800847 -0.0064306073 0.00120179 -0.0020716675 3.400719e-05 -0.009877149 0.0026980438 -0.0047495537 0.0010929209 -0.0015761765 0.0021930716 -0.007875646 -0.0027112672 0.0026625744 0.005343823 -0.002390499 -0.009516979 0.0045065116
is 9.6538286e-05 0.0030748993 -0.006832961 -0.001371897 0.0076740733 0.0073434575 -0.0036738175 0.0026662394 -0.0083379485 0.0062071113 -0.0046542073 -0.0031866904 0.009313106 0.00087182864 0.007498294 -0.0060874657 0.0051596207 0.009920533 -0.008452524 -0.0051531275 -0.007070488 -0.004848544 -0.0037742197 -0.008526129 0.007944247 -0.0048494088 0.008413051 0.0052584545 -0.0065655885 0.0039629526 0.005483927 -0.007444099 -0.007401666 -0.002498339 -0.00863143 -0.0015583879 -0.00040636206 0.0032888122 0.0014293351 -0.0008939259 -0.0055860686 0.0017219619 -0.00091191643 0.006799838 0.003977917 0.0045428975 0.0014152564 -0.0027164065 -0.004376842 -0.0010425682 0.0014541695 -0.0026720467 -0.007074432 -0.007802737 -0.009124542 -0.005942985 -0.0018361877 -0.0043400074 -0.0064752577 -0.0037214363 0.0042916317 -0.0037439067 0.0083772065 0.0015307844 -0.0072468743 0.009450152 0.007629247 0.005500836 -0.0068669016 0.0058234413 0.003999951 0.0051893536 0.0042687487 0.001939369 -0.003157116 0.008343802 0.009614168 0.0037975146 -0.002848528 2.6626517e-06 0.0012015707 -0.008453875 -0.008239251 -0.00022854841 0.0012109079 -0.0057534403 -0.0047287764 -0.0073373183 0.008338102 0.00012471633 -0.0044952068 0.0057049934 0.009167546 -0.0040972726 0.007980999 0.005386304 0.0058847745 0.0005089974 0.008214898 -0.007023244
of -0.00824404 0.009301963 -0.0002055326 -0.0019582 0.004612993 -0.004098902 0.002746021 0.0069503714 0.006045064 -0.0075052446 0.009373472 0.004656554 0.0039696842 -0.006249391 0.008471288 -0.0021587324 0.008820496 -0.0053559276 -0.008129011 0.0068200007 0.0016686227 -0.0021819375 0.00951808 0.009482464 -0.009767103 0.0025017993 0.006151249 0.0038612846 0.0020190098 0.00043126947 0.00067528535 -0.0038292254 -0.007129103 -0.0020996942 0.003926226 0.008828454 0.009251806 -0.0059839827 -0.00939977 0.009748987 0.0034367896 0.0051651755 0.0062807132 -0.0027990662 0.00731652 0.0028426077 0.0028643936 -0.002382496 -0.0031386875 -0.0023793718 0.004292442 6.142424e-05 -0.009590675 -0.009669173 -0.006139426 -0.00013168293 0.0020112912 0.009435469 0.0055873636 -0.0042935894 0.0002672497 0.0049657496 0.007698896 -0.0011486597 0.0043174545 -0.0058013014 -0.00081071665 0.008104592 -0.0023729173 -0.009662458 0.005771763 -0.003934002 -0.0012020048 0.009987084 -0.0022547496 -0.0047771703 -0.005322819 0.0069675096 -0.005721922 0.002109179 -0.0052700257 0.006135407 0.004350324 0.002597107 -0.0015018183 -0.0027575295 0.00899146 0.0052177147 -0.0021519181 -0.009464141 -0.007424057 -0.00106013 -0.0008030377 -0.002561368 0.009699226 -0.00044472129 0.005879772 -0.007447001 -0.0024988097 -0.0055641937
ever -0.0071386993 0.0012530127 -0.007203135 -0.0022553063 0.0037192137 0.00583214 0.0012039322 0.0021284781 -0.004125072 0.007225627 -0.0063169096 0.0046299584 -0.008230646 0.0020118738 -0.0049773045 -0.0042716376 -0.0031076223 0.0056387316 0.0057968446 -0.0049922615 0.0007899321 -0.008473697 0.007850038 0.009272365 -0.0027669647 0.0007961829 0.0007447807 0.0054669767 -0.008616093 0.00058087154 0.0068836855 0.0021954635 0.0011389271 -0.009356711 0.0084926365 -0.006248997 -0.0029947439 0.0034969458 -0.0007739048 0.0013963172 0.0017852962 -0.0068393317 -0.009730885 0.009061304 0.0062125386 -0.006903646 0.003379008 0.00019186718 0.00474196 -0.007126214 0.0040493985 0.0043349285 0.009958019 -0.0044845715 -0.0013754005 -0.0073320717 -0.009673472 -0.009097198 -0.0010411307 -0.006520132 0.004849182 -0.0061706244 0.002519228 0.0007380004 -0.0034073219 -0.0009569362 0.009973452 0.009169182 -0.0044845934 0.009083843 -0.0056579267 0.0059286854 -0.0030689705 0.003444137 0.0030280822 0.0068907593 -0.0023695822 0.008779489 0.0075751073 -0.00956474 -0.008040827 -0.007624244 0.0029064268 -0.0027974728 -0.0069515198 -0.008146758 0.008313346 0.0020070774 -0.009344847 -0.004803674 0.0031538915 -0.0047156066 0.0052837715 -0.004228024 0.0026796684 -0.008038141 0.0062104077 0.0048312927 0.0007659649 0.002994447
at -0.008749968 0.0021489146 -0.00089610764 -0.009318893 -0.00940718 -0.0014160788 0.0044244304 0.0037441575 -0.0065267314 -0.006868148 -0.005009131 -0.0023055074 -0.007250043 -0.00960839 -0.002722463 -0.00837953 -0.0060380492 -0.0056704697 -0.0023437538 -0.0017430313 -0.008968504 -0.0007178635 0.008179613 0.0076830145 -0.007220671 -0.0036892006 0.0031104009 -0.009597774 0.0014534269 0.0065202685 0.0057768053 -0.008802634 -0.004501838 -0.008180794 4.6296343e-05 0.009302976 0.005969819 0.005063372 0.005059509 -0.0032735982 0.00957585 -0.007358189 -0.0073064505 -0.0022533233 -0.00076422014 -0.0032116445 -0.00062036526 0.0074803852 -0.00070144935 -0.0016379058 0.0027729408 -0.008385892 0.007847605 0.008553142 -0.009583442 0.0024470412 0.009935284 -0.0076836282 -0.0069836243 -0.0077584144 0.008391686 -0.00067916594 0.0091567235 -0.0081704715 0.003731566 0.002676053 0.0007385656 0.002338514 -0.007499144 -0.009357112 0.002345211 0.006163729 0.008016478 0.005761065 -0.00075824687 0.008294434 -0.009332219 0.003404328 0.00024349627 0.0038314632 0.007343613 -0.0067260196 0.005565508 -0.009521779 -0.0008350759 -0.008700408 -0.0050903787 0.009301766 -0.0018530221 0.0029348782 0.00909053 0.008951253 -0.008217823 -0.0030038063 0.009929989 0.005131047 -0.0015848376 -0.008682745 0.002957774 -0.0066892775
a 0.008134315 -0.004446802 -0.0010863515 0.0010049971 -0.00017571486 0.0011309467 0.006112086 -3.9694243e-07 -0.003265859 -0.001523538 0.005897748 0.0014870134 -0.0007329308 0.009333231 -0.004901417 -0.00084988144 0.009178101 0.0067481915 0.0015203364 -0.008903585 0.0011550387 -0.0022743298 0.009385317 0.0012078043 0.0014825555 0.0024145602 -0.0018576335 -0.005006827 0.00022228748 -0.0020058132 0.0066147028 0.008931128 -0.0006608856 0.0029500898 -0.0061038584 0.0017145295 -0.006931041 -0.0086902995 -0.005913124 -0.0089647975 0.0072953263 -0.0057847034 0.008262851 -0.0072299233 0.0034216128 0.009679537 -0.0077951257 -0.009960295 -0.0043318444 -0.0026909243 -0.00025006523 -0.008844271 -0.0086121345 0.002801418 -0.008207371 -0.009076772 -0.0023295623 -0.008643967 -0.007056969 -0.0083981715 -0.0003059542 -0.0045656282 0.0066300193 0.0015340818 -0.0033383174 0.006138973 -0.0060084974 -0.004656548 -0.0072319387 -0.004325398 -0.0018353722 0.006490381 -0.002760913 0.004923088 0.0069147767 -0.007476467 0.004560076 0.006137838 -0.0029557124 0.006615398 0.006094373 -0.0064379824 -0.006776607 0.002538441 -0.0016471811 -0.0060720127 0.009517082 -0.0051242583 -0.00654346 -0.00011474084 -0.002689037 0.00044025114 -0.0035542531 -0.00042074022 -0.00069504755 0.00081607525 0.008203391 -0.005733054 -0.0016627098 0.0055738315
i 0.008167107 -0.004443744 0.008966529 0.008250972 -0.0044354605 0.000299268 0.004264594 -0.003913738 -0.005571764 -0.006509275 -0.00068245 -0.00030189252 0.0044654068 -0.0024765523 -0.00016287809 0.0024383096 0.0048621534 -4.098187e-05 -0.0063314107 -0.009267385 3.078939e-05 0.0066777845 0.001477453 -0.008957157 -0.0079403445 0.006539236 -0.0037895544 0.006260369 -0.0066973097 0.00848161 -0.0065124314 0.0032775572 -0.0010472559 -0.006809722 -0.0032890923 -0.001144036 -0.0054776426 -0.0012190585 -0.007575402 0.0026425596 0.0090658385 -0.0023786991 -0.0009843031 0.0035232843 0.008673687 -0.005915845 -0.0069023035 -0.0029389376 0.009141704 0.00085966114 -0.008668525 -0.0014512679 0.00947429 -0.007555331 -0.005344513 0.0093090115 -0.008968778 0.0038182295 0.000654179 0.006649201 0.00831593 -0.0028529314 -0.0039919564 0.008892976 0.0020769543 0.006257712 -0.009451031 0.00960401 -0.0013610775 -0.006046287 0.0029959232 -0.00044728955 0.0047218283 -0.002279482 -0.0041259304 0.0022792704 0.0083609065 -0.004996451 0.0026586035 -0.007998023 -0.0067903004 -0.00045995426 -0.008786607 0.0027961044 0.0015878482 -0.0023305207 0.0050033526 0.009768328 0.008462512 -0.0018751251 0.0020727515 -0.0040009134 -0.008243515 0.0062785796 -0.0019337846 -0.0006571318 -0.0017701124 -0.0045341495 0.004060606 -0.0042937025
’ -0.009587571 0.008946389 0.0041592885 0.009231113 0.0066478485 0.002917779 0.00980251 -0.004417662 -0.0068145245 0.0042235195 0.0037310522 -0.005681851 0.009711528 -0.0035624846 0.009551244 0.00082836754 -0.006338639 -0.0019804314 -0.007380317 -0.0029908153 0.0010363274 0.009484436 0.00936986 -0.0066035595 0.003469307 0.0022721735 -0.002492723 -0.009237411 0.0010250418 -0.008167387 0.006332895 -0.0058090654 0.005535262 0.009825766 -0.0001649573 0.00454521 -0.0018090178 0.0073606265 0.0039390777 -0.009024436 -0.0023889015 0.0036216688 -0.00010391681 -0.001199732 -0.0010520832 -0.0016654198 0.0005948449 0.0041583786 -0.004260198 -0.0038394101 -4.859431e-05 0.00025580454 -0.00016243733 -0.0047789263 0.004306573 -0.0021728238 0.0021129553 0.00066016417 0.005962694 -0.006839229 -0.006806249 -0.0044796253 0.009440591 -0.0015941062 -0.009427877 -0.00053420925 -0.0044477903 0.006003721 -0.009591101 0.0028594136 -0.009265981 0.001250363 0.0060064783 0.007405512 -0.007620136 -0.0060566305 -0.006846267 -0.0079181865 -0.0094975615 -0.0021268972 -0.0008374025 -0.00726029 0.006775999 0.0011201386 0.0058181444 0.0014714891 0.0007873571 -0.007370941 -0.0021717665 0.004329096 -0.0050832066 0.0011357965 0.0028773264 -0.0015366479 0.009942316 0.008355537 0.0024149148 0.0071192062 0.0058926204 -0.0055880384
up -0.0051581175 -0.006666048 -0.0077768266 0.008308621 -0.0019804365 -0.006859225 -0.004158 0.0051461346 -0.0028710165 -0.003752183 0.00162531 -0.0027750419 -0.0015870561 0.0010731132 -0.0029707584 0.008514862 0.003910229 -0.009960625 0.006261838 -0.0067510908 0.0007702544 0.0044075237 -0.0051006507 -0.002109551 0.008092962 -0.0042426335 -0.007636811 0.009258316 -0.0021555414 -0.0047191875 0.0085692145 0.004283102 0.004324564 0.009282592 -0.008450652 0.0052598766 0.0020389224 0.0041849455 0.0016941775 0.0044646417 0.0044883424 0.006105502 -0.0032005978 -0.0045748325 -0.00042416033 0.0025357362 -0.003263653 0.0060573965 0.0041523366 0.007761526 0.002571712 0.008119742 -0.00138955 0.008075764 0.0037196807 -0.008049028 -0.0039323806 -0.0024678048 0.0048963223 -0.00087546196 -0.002832077 0.007838045 0.009323562 -0.0016173039 -0.0051589482 -0.0047005955 -0.0048460714 -0.009599883 0.0013693457 -0.004226259 0.0025271014 0.005615473 -0.004064723 -0.009593336 0.0015478951 -0.0066998815 0.0024941005 -0.0037783876 0.007075916 0.0006378142 0.003556338 -0.0027353303 -0.0017131532 0.007655648 0.0014077158 -0.005850677 -0.007830788 0.0012374077 0.0064565833 0.0055566556 -0.008977787 0.008591618 0.00404566 0.0074681807 0.009749589 -0.007286736 -0.009037339 0.0058354475 0.009391029 0.0035009289
to 0.007090848 -0.0015661955 0.0079324115 -0.009495247 -0.008029062 -0.0066475696 -0.004009919 0.0050032474 -0.003814445 -0.008333566 0.0084097795 -0.0037719156 0.008610337 -0.0048950333 0.0039174454 0.004897157 0.0023941011 -0.0028382177 0.0028667443 -0.008271851 -0.002752638 -0.0025765332 0.0072790897 -0.0034438956 -0.006610894 0.0043468145 -0.0004958014 -0.0035944069 0.0068654465 0.003874225 -0.0038919079 0.000761362 0.009158357 0.0077286214 0.006366634 0.0046876515 0.0023844498 -0.0018471366 -0.0063891863 -0.00031278984 -0.0015655287 -0.0005814689 -0.006270387 0.0074426336 -0.006587505 -0.00724154 -0.0027703096 -0.0015323476 -0.007639239 0.00069948565 -0.0053079533 -0.0012869344 -0.007366292 0.0019504912 0.0032812709 -3.5195157e-05 -0.0054447656 -0.0017417152 0.0070615243 0.0037198015 -0.008879954 -0.0034174346 0.002366372 0.0021494976 -0.009474019 0.0045881667 -0.008657345 -0.0073813954 0.0034657572 -0.0034574561 0.0035612853 0.008898744 -0.0035568243 0.009330767 0.0017314809 0.00984192 0.005695645 -0.009150623 -0.0033349176 0.006536228 0.0055746315 0.008715293 0.0069076726 0.008037456 -0.009849373 0.0042794924 -0.0050121807 0.0035267433 0.0060535744 0.00439904 0.007535357 0.0015012699 -0.0012704306 0.005765187 -0.0056176474 3.6014728e-05 0.00945675 -0.005475521 0.0037889346 -0.008123884
, 0.009776213 0.008184241 0.0012622573 0.005094798 0.0014197194 -0.0064665233 -0.0014238396 0.006472624 -0.004625552 -0.0040073195 0.0049263113 0.0026917804 -0.0018522188 -0.0028823924 0.006031467 -0.005732284 -0.0032330796 -0.0064934217 -0.004227803 -0.008587926 -0.004465743 -0.0084880525 0.0014119442 -0.008610079 -0.009932734 -0.008198888 -0.006782919 0.0066659534 0.0037709766 0.0003543609 -0.0029536125 -0.007449226 0.00054203026 0.0004741798 0.00019031421 0.0008769085 0.0007880229 -6.882471e-05 -0.008026179 -0.0058781146 -0.008375875 -0.0013091767 0.0018130589 0.007423467 -0.0019586908 -0.00231695 0.009470001 6.415732e-05 -0.0024109308 0.0086012175 0.002699717 -0.00535696 0.006580296 0.004500707 -0.0070435144 -0.00033266525 0.0008517338 0.0057400647 -0.001729679 -0.0028180594 0.0017425041 0.0008453872 0.0012005968 -0.0026352252 -0.005990622 0.007347938 0.007577263 0.008299095 -0.008623639 0.0026316205 -0.0035630814 0.009621884 0.0029222765 0.0046479534 0.002398655 0.006600905 -0.0057400563 0.007900727 -0.0024296974 -0.004571829 -0.0020917733 0.009746784 -0.0068676085 -0.0021934647 0.006988728 -6.1227496e-05 -0.0062760017 -0.0063745715 0.008944365 0.0064263917 0.0047834963 -0.0032578965 -0.009276053 0.003793419 0.0071798917 -0.00562715 -0.007868484 -0.0029721018 -0.0049372306 -0.0023248894
husband -0.0019488572 -0.0052573946 0.009438244 -0.009301145 0.004511321 0.0053941114 -0.0014127332 0.009022578 0.009882304 -0.005488906 -0.0060233786 -0.006766336 -0.00789036 -0.0030513867 -0.0055846223 -0.008358655 0.0007830006 0.002990771 0.0064209783 -0.0026300042 -0.004451245 0.0012609524 0.00039863196 0.008117808 0.00018023934 0.007234931 -0.00827377 0.00842673 -0.0018982528 0.0087079005 -0.007619737 0.0017880508 0.0010613813 2.8384386e-05 -0.0051054577 -0.009230889 -0.007265066 -0.007955628 0.0019056189 0.00047538237 -0.0018060759 0.0071214503 -0.0024777898 -0.001347204 -0.008899352 -0.009919711 0.008945256 -0.0057633454 -0.006375571 0.00519396 0.006682953 -0.006843664 0.00095794594 -0.0060184523 0.0016514543 -0.0042944876 -0.003431474 0.0021854804 0.008660314 0.0067240596 -0.009678279 -0.0056249094 0.00789072 0.0019915274 -0.0042555435 0.0006127314 0.009517947 -0.0011008707 -0.00943941 0.0016107868 0.0062308894 0.0062812762 0.004109004 -0.005643874 -0.0003638144 -6.33588e-05 0.0045685936 -0.0080469595 -0.00802626 0.00026978803 -0.008628449 0.00583174 -0.0004226263 0.009963906 -0.005353648 -0.0005001088 0.0077665877 -0.0040565706 -0.0050060228 0.001592958 0.0026614775 -0.002559895 0.0064423387 -0.007663422 0.0034070553 0.0004935916 0.008731569 0.0059824022 0.0068116956 0.007815817
new -0.009509174 0.00956474 -0.007771599 -0.002644921 -0.0048936536 -0.0049765822 -0.008029461 -0.007768788 -0.004554369 -0.0012799124 -0.005096945 0.0061227093 -0.009516731 -0.005300626 0.009444906 0.006987461 0.00768025 0.0042340886 0.0005154208 -0.0059913495 0.0060174265 0.0026403584 0.0077140336 0.0063915234 0.007937648 0.008652714 -0.009905539 -0.0067568286 0.0013303976 0.0064328844 0.0073840907 0.0055077076 0.0076719746 -0.0051359474 0.0065786215 -0.0040952903 -0.009049953 0.0091355285 0.0013247652 -0.0027649342 -0.002465103 -0.0042223586 0.0048035895 0.004404331 -0.0026505038 -0.007335969 -0.0035763835 -0.00034289015 0.0060938406 -0.0028398947 -0.0001079182 0.0008723035 -0.007096389 0.0020730917 -0.001437458 0.002803604 0.004854635 -0.0013561373 -0.0027788621 0.0077344268 0.00504009 0.0067136437 0.0045181345 0.008669775 0.0074754697 -0.0010667514 0.0087422 0.0046004127 0.0054325354 -0.0013824963 -0.002047472 -0.0044217124 -0.00850281 0.003048347 0.008896068 0.008909853 -0.00194337 0.0060852165 0.0037745263 -0.004299506 0.0020210529 -0.005437024 0.008201896 0.0054372237 0.0031679901 0.004106675 0.008668026 0.0072690407 -0.0008285179 -0.007065697 0.008389201 0.007237929 0.0017214325 -0.0013454141 -0.0058765523 -0.004524781 0.008648352 -0.0031284173 -0.0063462523 0.009870681
shirt 0.007702597 0.009120608 0.0011304234 -0.008325242 0.008434424 -0.0037015006 0.0057438314 0.0044042384 0.009690736 -0.009298408 0.009209205 -0.009293361 -0.006912517 -0.009102887 -0.00554553 0.007369074 0.009168505 -0.0033236756 0.0037294873 -0.003633552 0.007882919 0.005871757 -3.3203457e-07 -0.0036247254 -0.0072276997 0.004772436 0.0014487114 -0.0026117514 0.007831897 -0.0040500145 -0.009147037 -0.0022586244 0.0001288524 -0.006650844 -0.0054880762 -0.00850063 0.009231489 0.007419029 -0.00030186886 0.0073668957 0.007954875 -0.0007855436 0.0066054394 0.003772536 0.005074524 0.0072561987 -0.004747497 -0.00219344 0.0008696892 0.0042380756 0.003314425 0.005088293 0.0045834207 -0.008443406 -0.0031822994 -0.0072409483 0.009687907 0.005003478 0.00016869736 0.004116375 -0.0076646716 -0.0062970137 0.003075508 0.00653451 0.0039473767 0.0060288836 -0.0019860226 -0.0033469773 0.00020412733 -0.003196058 -0.005521703 -0.0077906153 0.0065381564 -0.0010898617 -0.0018854353 -0.007815076 0.009343545 0.0008700568 0.0017659089 0.002487504 -0.0074019395 0.001648564 0.0029744182 -0.008566518 0.0049444055 0.0024325186 0.007508741 0.0050472645 -0.0030321488 -0.007167213 0.007102294 0.0019006872 0.005198013 0.0063882843 0.0019163385 -0.0061273817 -4.6803075e-07 0.008268641 -0.006104723 0.009443637
it -0.007196334 0.0042425585 0.0021519193 0.0074459375 -0.004874209 -0.004565027 -0.006096334 0.0033105502 -0.0045138216 0.008532797 -0.0042881607 -0.009108379 -0.0048185335 0.00641084 -0.0063617034 -0.005266622 -0.007300198 0.0060282783 0.003356893 0.0028397208 -0.0031385997 0.006041177 -0.006137566 -0.0019902915 -0.0059824414 -0.0010069287 -0.0020177283 0.008471685 7.0878465e-05 -0.008578407 -0.005413491 -0.006895334 0.00270297 0.00944442 -0.0058112596 0.008273171 0.008527151 -0.0070625856 -0.008873819 0.009456763 0.008384548 -0.004693499 -0.006733045 0.00784719 0.0037675055 0.008110676 -0.0075839893 -0.009526876 0.001574315 -0.009813611 -0.004869988 -0.0034676234 0.009611088 0.008624534 -0.0028291885 0.005824844 0.008251943 -0.002260979 0.009526921 0.0071494407 0.0020320509 -0.0038433673 -0.0050832126 -0.0030612098 0.00788156 -0.0061770147 -0.0029187852 0.009192455 0.0034476353 0.006070597 -0.008039779 -0.0007548917 0.0055389763 -0.0046984274 0.0074812 0.009301101 -0.00040417392 -0.0020680686 -0.00060693716 -0.005798034 -0.008404042 -0.0015016929 -0.0025658894 0.0043772254 -0.0068758684 0.005404157 -0.006746046 -0.007822354 0.0084743835 0.008920752 -0.0034806493 0.0034945174 -0.00579942 -0.008746858 -0.0054971087 0.0067606843 0.0064240773 0.009442624 0.0070482795 0.0067434944
system 0.0013019779 -0.0098080635 0.0045752353 -0.00053963024 0.006335283 0.0017802304 -0.0031353063 0.0077701504 0.001542717 5.4057105e-05 -0.004621658 -0.008468909 -0.007765666 0.00867181 -0.008923835 0.009029534 -0.009284482 -0.00027576752 -0.0018955811 -0.008941806 0.008627245 0.0067831865 0.0030181676 0.004833747 0.00011147752 0.0094201835 0.0070145074 -0.0098575065 -0.0044372994 -0.0012903474 0.003047075 -0.0043289703 0.0014555274 -0.007866273 0.0027799995 0.004711711 0.0049322955 -0.003184191 -0.008434897 -0.009224753 -0.0007121609 -0.007337103 -0.0068279468 0.0061263447 0.0071718176 0.0021194292 -0.007905115 -0.0057065897 0.008046869 0.0039144973 -0.005224491 -0.0074050426 0.00077471114 0.003475438 0.0020775585 0.00310462 -0.005615243 -0.009899249 -0.007022063 0.00022683454 0.0046144957 0.0045220936 0.0018756435 0.005175945 -0.000102068094 0.0041298424 -0.009125938 0.0077027236 0.006140602 0.005130309 0.0071970816 0.008440707 0.00074751355 -0.0017039787 0.0005237464 -0.009326691 0.00840625 -0.006381275 0.008426326 -0.004240256 0.0006269072 -0.009161723 -0.00956311 -0.00784264 -0.0077465153 0.00037170947 -0.00722435 -0.0049450654 -0.005260947 -0.004278848 0.007020575 0.004828298 0.008669892 0.0070989695 -0.005686414 0.007243934 -0.009294293 -0.0025863566 -0.00775839 0.004197665
fuck 0.0018031355 0.007054408 0.0029377702 -0.006980103 0.0077121076 -0.0059917527 0.009002239 0.002966493 -0.0040219547 -0.004692581 -0.0044144434 -0.006151436 0.009376544 -0.0026509059 0.007779651 -0.009687387 0.0021118307 -0.0012372845 0.0075449524 -0.009059419 0.007442947 -0.0050953836 -0.0060045817 -0.0056426004 -0.003390312 -0.0034101412 -0.0032009496 -0.007499049 0.0007046227 -0.0005775646 -0.0016826522 0.0037476602 -0.007613494 -0.0032323187 0.00515452 0.008553968 -0.0098116705 0.007196732 0.0053007547 -0.003885401 0.00857664 -0.009220883 0.007247335 0.0053679673 0.0012979059 -0.005199544 -0.0041884277 -0.0033627192 0.0016060477 0.0015855492 0.007389023 0.009975741 0.0088643385 -0.004011757 0.00965288 -0.000634306 0.0048709963 0.0025434496 -0.00063536124 0.0036608912 -0.005319982 -0.0057597556 -0.007604248 0.0019050125 0.0065196143 0.0008917471 0.0012520975 0.0031782442 0.008123376 -0.0077003255 0.0022591893 -0.0074718394 0.0037171612 0.009513161 0.007527669 0.006426654 0.0080163665 0.0065572215 0.0068473816 0.008670935 -0.00496147 0.009215519 0.00505435 -0.0021258495 0.008484206 0.0050797677 0.009657257 0.0028407213 0.009865229 0.001193609 0.009133558 0.003585529 0.0065625226 -0.0036091323 0.006801232 0.0072464473 -0.0021348996 -0.0018577905 0.0036077981 -0.0070397207
again 0.009737368 -0.009769623 -0.006508372 0.0027860876 0.006434953 -0.0053720977 0.0027564697 0.009135148 -0.0068214983 -0.0061094062 -0.004986668 -0.0036861638 0.0018521337 0.0096825855 0.0064498987 0.00038962153 0.0024747523 0.008435091 0.009133555 0.005620966 0.005951074 -0.0076056467 -0.0038185162 -0.0056734807 0.0061715827 -0.0022548118 -0.008787691 0.007613909 0.008391496 -0.003322143 0.009118951 -0.00075084495 -0.0036184439 -0.00040090166 0.00019212974 -0.0034898703 0.0028121443 0.005726626 0.0068554403 -0.008908727 -0.002191347 -0.0054781334 0.0075154155 0.006504756 -0.00435737 0.0023276363 -0.0059631816 0.00022844406 0.009455132 -0.0026115302 -0.005179562 -0.0074032266 -0.0029206858 -0.00087094295 0.0035390742 0.009737664 -0.0033832493 0.0018962127 0.009675345 0.0015206033 0.0009807714 0.009798021 0.009301537 0.0077078165 -0.0061789267 0.009997533 0.005840914 0.009077624 -0.0020111122 0.0033491235 0.006832421 -0.0038899644 0.0066529345 0.0025658838 0.0093209725 -0.0030406772 -0.003108476 0.006218001 -0.009092484 -0.007260617 -0.006520197 -0.00074277894 -0.0023660592 0.0068197926 0.009230576 -0.00091273524 0.0014246249 0.0020301766 -0.0020202168 -0.008036216 0.0074461144 -0.0042983154 0.004570921 0.009095599 0.0030573932 0.0031419073 0.0040580262 -0.002697989 0.003820644 0.0003337377
woman 0.0056207385 0.005500869 0.0018219708 0.0057512475 -0.008959331 0.006560077 0.009220723 -0.004196873 0.0016041344 -0.0052323984 0.0010549969 0.0027639226 0.008164952 0.00054818596 0.0025584185 0.0012951981 0.008401596 -0.0057096933 -0.0062549124 -0.003638241 -0.0023008864 0.005043653 -0.008114151 -0.0028332272 -0.008199584 0.005145673 -0.0025728904 -0.009068047 0.0040649236 0.009012817 -0.0030312412 -0.005843742 0.0030220917 -0.00044469835 -0.0099777775 0.0084247915 -0.007339879 -0.004934582 -0.0026587422 -0.0054572225 0.0017197991 0.009711079 0.004564636 0.008092447 -0.00046421643 0.00064721185 -0.0026740152 -0.008783156 0.0034281875 0.0020893055 -0.009414414 -0.004969938 -0.009735318 -0.0057155974 0.0040708575 0.008641408 0.004113117 0.0023815008 0.008137341 -0.0011279212 -0.0014019115 -0.008750368 -0.00012145575 -0.0025638419 0.00037984367 0.0072845113 -0.007044495 -0.003943552 -0.0066703334 -0.0035393324 -0.0033152024 0.0021390887 0.0033369293 -0.00495172 -0.004542972 0.0011336847 0.0054548867 0.0053720153 -0.002968894 -0.0042669005 -0.0056278785 -0.0005409793 0.0019430172 0.0015245855 0.0073461193 -0.002736086 -6.211365e-05 -0.0055212816 -0.001169422 -0.0077091195 -0.00095335545 0.0013110674 -0.008594794 0.008751043 -0.009200279 -0.009619987 -0.008515365 0.0073174946 0.005464275 0.009248851
free 0.0025631099 0.0008687048 -0.0025772806 0.009345009 0.002767074 0.0040840306 -0.0011795062 0.0009404576 0.0066029686 -0.00073912967 0.003333955 -0.0007090048 0.0052455207 0.0036337683 0.0026019327 -0.0053415284 -0.0047065737 0.0042952984 -0.005892537 -0.0002006938 -0.0006256875 0.0035198925 -0.008406601 0.008824275 -0.0014678778 -0.0053373547 0.0040424084 -0.0019567348 -0.0077881054 -0.0044998955 -0.00037367668 -0.008977697 0.0005927905 0.0023968646 -0.0032245915 0.0025989048 0.0024746205 0.009986264 0.001402904 0.0020090728 0.0027916057 -0.0020752817 -0.008724582 0.008032944 -0.0019760055 -0.009690853 -0.006561263 -0.003970151 0.003944623 0.0050372076 0.006114039 -0.0068021207 0.0006810491 -0.0027741422 -0.005189856 0.0069745933 0.0039788163 -0.0031274243 -0.008288758 -0.0051654647 -0.0006683374 0.0078003802 0.0060539693 -0.008445558 -0.009575148 0.0071766376 -0.0023514833 -0.0036811428 0.0057096886 -0.0058414214 0.005089738 -0.00023914778 -0.006825854 -0.00031316382 0.0063699316 0.009263654 0.0022221429 0.0050455397 -0.00500329 -0.0008037413 -0.0053769285 0.0012070739 -0.001809528 -0.0036333695 -0.007037945 0.00962877 0.0030014268 -0.002250298 -0.0041756495 0.0077212015 -0.0064606247 0.0031234613 0.00077228574 0.008322788 0.00687107 -0.0028866832 0.0025410824 -0.0016622803 -0.009457419 -0.0026280284
be 0.0013329572 0.0065409197 0.009982291 0.009063685 -0.0080156885 0.006491601 -0.0057150726 -0.00096974935 0.0004804471 0.0065821884 0.0044689784 0.0046011982 0.009484112 0.00038341738 -0.0060384264 -0.0063310377 0.0064323363 -0.005243773 -0.0028488943 0.0040725106 -0.0022894833 -0.0060228016 -0.0023216363 0.0012071116 0.00218215 0.006083077 -0.00521616 0.003076377 0.0072401036 0.0021955092 0.0053982968 -0.0048476364 0.006154914 -0.007605396 0.003492497 -0.009318662 -0.0026050606 -0.0090736 -0.0015898627 -0.005366988 -0.0039432757 0.0011526507 0.0027987836 -0.0015242752 -0.00816947 -0.00591887 0.0008171156 -0.00394804 -0.009430662 -0.0007755324 0.006634986 0.0059770807 -0.009917645 0.0031196568 -0.005985797 -0.009181179 0.00017189178 -0.00037147294 -0.006973274 -0.0062819747 -0.0024269288 0.0070953355 -0.0075459112 0.0076989923 -0.00047718972 0.0010961525 0.009481198 0.004729076 -0.0035740864 0.003736455 0.003518827 0.006336678 7.149225e-05 -0.004422543 0.0013196528 -0.0054153777 0.0014124988 0.0049259956 0.005153468 0.009180947 -0.0075159143 -0.005403523 0.0064683724 0.0013545108 -0.0066136615 0.00088349235 0.0026770951 -0.002527129 -0.0049595167 0.0050070593 0.009623262 -0.0073644095 -0.00011747592 -0.0025636384 -0.006362215 -0.0013777077 -0.005251538 0.009061251 -0.0057912907 0.003685762
ima -0.0002376151 0.0042088847 0.0021074777 0.009991204 0.00063230324 -0.005470437 -0.0011913743 0.0020726337 -0.003377114 -0.007851214 -0.00560061 -0.006759942 0.0063579646 0.003923599 0.008220048 0.006514134 -0.0061303405 0.0027166703 0.008482145 0.0015949517 0.003063085 0.0058178315 -0.008845396 0.009120923 0.006825 0.0085046245 -0.008226461 0.006175578 0.006624526 -0.0013548109 -0.0062978724 0.005327219 -0.0068564317 -0.005339919 0.0035110374 0.008090605 0.008686021 -0.0044190087 -0.009195106 0.00960493 0.0062984787 -0.0039722268 -0.008464526 -0.0047190664 -0.0039549316 -0.0032660658 0.0008164695 -0.00030072388 -0.0031166468 -0.006002402 0.0094378665 -0.0047295387 -0.0072622155 0.007691864 0.0025130538 0.008631931 -0.0044656205 -0.0068913586 0.0009865527 -0.0011774637 -0.009400506 -0.00159839 0.0030434646 0.006565386 0.006853284 0.0032166082 -0.004446836 -0.0018408523 -0.0039423024 0.005776623 -0.0063618403 0.0021040011 -0.0013395438 -0.005809936 -0.0072411937 0.0058424314 -0.008358637 -0.0006905089 0.0028248436 0.0077509093 -0.007311522 0.003307715 0.009802248 -0.006979274 -0.003545058 0.0051309457 0.005236348 0.0016283216 0.007987563 0.0008430831 0.0018775455 -0.0016041939 -0.008176015 0.0032616644 0.0019706322 -0.008729268 -0.0006773219 7.393306e-05 -8.864015e-06 0.0087092165
tomorrow -0.0025101383 -0.005888213 0.00746916 -0.0072539453 -0.008962319 -0.0017926319 -0.008356351 0.00040707923 0.0019302657 -0.0024745842 -0.006450905 -0.00034244236 -0.0010945114 0.0034952213 0.00813545 0.0058443677 0.00844362 -0.008976428 0.00944592 -0.0023859376 0.008713211 0.002407789 0.0036127686 -0.009573651 -0.009502518 0.0089858575 -0.002910576 0.0028064118 0.0064082644 -0.0003029019 0.009733585 -0.0010527552 -0.009656528 -0.007077388 -0.0010464194 -0.0086531695 0.007421232 0.003625042 -0.008762966 0.008470539 0.008933493 0.0058417046 0.006898251 -0.009561436 0.0005012996 -0.009216187 -0.0036811817 0.00023561121 -0.00028653297 0.0014575094 0.0032869538 0.0021148855 0.0053153173 0.007514595 -0.0058702 0.007948566 0.0060015284 0.0097663095 0.004611358 -0.0033413526 -0.0037530835 -0.00064354483 -0.0016490595 0.009873985 0.0011071163 0.0040249988 0.0034056362 -0.008841096 0.0066968254 0.008198249 -0.0016780591 0.002335249 -0.0064584804 -0.006117849 0.008223001 -0.0030555257 0.006739641 0.0015583012 -0.0019977344 0.0030468216 -0.0040457724 -0.0017842794 0.0013743261 0.0048929173 -0.0014194594 0.0006502025 -0.007923214 0.009505803 -0.0087663885 0.007066839 0.00391875 -0.0069993017 -0.005299777 -0.007938427 -0.005110505 0.007075686 0.0096360175 0.00216395 0.0006331976 0.00952125
probation -0.0049735666 -0.0012833046 0.0032806373 -0.006414033 -0.009701589 -0.0092602335 0.009020697 0.0053716935 -0.004788227 -0.008329642 0.0012939513 0.0028780627 -0.0012452841 0.0012708711 -0.004321303 0.004791366 0.0014751852 0.008877825 -0.009976514 -0.0052695703 -0.009102842 -0.00034791828 -0.007857306 0.005031241 -0.006396855 -0.0059528374 0.0050709103 -0.008159769 0.0014552021 -0.007239541 0.009862422 0.008633759 0.0017689526 0.0057885037 0.0045962157 -0.005991783 0.009756947 -0.0096822055 0.008049258 0.0027563798 -0.003055122 -0.0035618627 0.009071954 -0.0054409085 0.008186872 -0.006008887 0.008391377 -0.0005554938 0.007942599 -0.0031549716 0.005979215 0.0088043455 0.002543838 0.001317749 0.0050391923 0.008002522 0.008568014 0.0084927725 0.0070525263 0.00800265 0.00859974 -3.3091306e-05 -0.0010037315 0.0016657913 3.273487e-06 0.00068517687 -0.008600937 -0.009594731 -0.002314676 0.0089282 -0.0036475873 -0.0069781933 0.004879383 0.0010691178 0.0018510211 0.0036529566 0.0035206736 0.005726122 0.0012343001 0.0008444631 0.009045251 0.0027822172 -0.0047028554 0.0065421867 0.005213312 0.002870567 -0.0031378341 0.0033368361 0.006364298 0.00708104 0.00094116566 -0.008531767 0.00025776148 0.00037042022 0.003942982 -0.00946896 0.009707871 -0.006972277 0.00576144 -0.009429872
off 0.009646365 0.0073295324 0.0012436776 -0.0034112434 -0.0004479892 0.00041910936 -0.006412695 0.005759657 0.002358909 0.0037738201 -0.00726006 0.008506072 0.0005115555 -0.00020778729 -0.009068535 0.004039897 0.0067652236 0.007349848 -0.0064050816 -0.007867649 -0.0055249818 -0.00059364684 -0.008329478 -0.008234136 -0.0019260314 0.0011358886 -0.009516303 -0.0037407496 0.0006393874 0.0068037524 0.0017310258 -0.0006404947 -0.007470142 -0.006766857 -0.0006902342 0.007480469 0.005436353 -0.0014960297 0.0011565024 -0.009613788 -0.0013791008 -0.004627633 0.0057951626 -0.0023316343 -0.0047652037 -0.009475265 -0.0012067702 -0.007206438 -0.0016964944 -0.0040742913 -0.00235698 -0.003261773 -0.008158567 -0.0012403432 0.0016988193 -0.0040485584 -0.0076331273 -0.0035983652 -0.009051895 -0.00076692714 0.0058766967 -0.0029700655 0.003161189 0.0050044353 0.008468932 0.0056408197 0.009500465 -0.009638551 -0.0079771895 -0.006754424 -0.0074733994 -0.0079616355 -0.007770379 -0.0029391882 0.0014016732 -0.002886413 -0.008815747 0.0049805506 0.00088976906 0.004587867 0.0071629374 0.00765559 -0.0008078342 0.0036566167 -0.0051379567 0.0019039429 0.004552036 0.009900143 -0.0031796733 0.0028448661 -0.0057253717 -0.0022107554 0.008111859 -0.0038937826 -0.0011714308 -0.009277597 -0.009478782 0.008887806 -0.005706274 0.0050552064
.. -0.006982483 -0.002453588 -0.008030893 0.00750258 0.006122837 0.0052509536 0.008370575 -0.00069558865 -0.009330436 0.009111671 -0.0049327533 0.007828234 0.005541896 -0.0010785267 -0.007654252 -0.0014845587 0.0062441784 -0.0069879214 0.0014503944 -0.007958247 0.008728763 -0.0028426726 0.009470473 -0.005703724 -0.009716954 -0.008630228 -0.0040935134 0.0047097383 -0.00025311435 0.009218628 0.0031205656 0.0037419645 0.003007561 0.008137727 -0.0023884994 0.00742739 -0.009538119 0.00292424 -0.00068504317 0.00044348885 0.0068394155 -0.0028487735 -0.0023648692 -9.370595e-05 -0.00049444305 -0.0035714717 0.006242219 -0.006558451 0.007885982 -0.00010048491 0.002615024 0.0032197556 -0.00027373206 0.0017090832 -0.0031267859 0.004750481 0.00024477756 -0.0032893538 -0.008725959 -0.010008405 0.00031614906 -0.0057475385 -0.0011027167 -0.0042021424 -0.008645523 0.0010650567 0.0059051933 -0.0021975697 -0.0071838372 0.0031690847 -0.00038999997 -0.0055125034 -0.0010830984 -0.00063050096 -0.003176822 -0.009954842 0.007620262 0.0037182525 -0.0025268667 0.007305658 0.00044148345 0.007171862 -0.0015587605 0.007492975 -5.2024607e-05 -0.006090997 -0.0047142417 0.009636601 0.00058949005 0.0010390244 0.00846367 -0.0062847463 -0.0017682645 -0.008187849 -0.006654313 -0.008570188 0.003927621 0.0027447208 0.005608899 0.0025469107
carousel 0.0021002414 0.0057402304 -0.0021274574 0.0031698246 0.008442485 0.00037664405 0.0062988377 -0.0067332056 0.006558531 0.0046843807 0.0050782906 -0.009954662 -0.00042018425 0.0031924057 -0.0058175554 -0.0067219427 0.0063598324 -0.006847091 -0.00518011 0.0081089195 -0.007006774 0.0085684685 0.00069720496 0.00441288 -0.0030203098 -0.0054230443 -0.0089613255 -0.0006128535 -0.005113556 -0.0030809792 0.008124714 -0.00766381 -0.0062894025 -0.0052771885 -0.0065998924 -0.008820026 -0.0011102111 0.009445342 0.008029237 -0.005289085 -0.008139578 -0.0022636077 -0.009271351 -0.0050598304 -0.0059484057 0.003036065 -0.0075808046 0.0012431213 0.0022707486 0.005304945 -0.002006433 -0.009786385 0.0052264337 -0.0059206877 0.0048974007 0.001958537 0.0088306535 0.0015216108 -0.001835839 0.006483981 -0.0070691095 -0.008396846 0.0037976245 -0.0025735653 -0.0041975887 -0.0019126718 -0.0098753655 0.0002801785 -0.0010785058 -0.0029552085 0.0024827928 0.0046950732 0.0063690543 -0.007900903 -0.0049804104 -0.008797842 -0.008963192 -0.003741452 -0.0012868664 -0.008217574 -0.0053965887 -0.0021454063 0.0063287355 0.0015727552 0.008295881 -0.008334402 -0.0045697317 -0.0008003507 0.008801705 0.0011116349 0.0015571734 0.0012919068 0.0029215561 -0.009403514 0.0032851193 0.005476652 0.0052929563 0.0044477456 -0.008098026 -0.004084066
cock 0.008340955 -0.000564562 -0.009456385 0.004781414 -0.0060461457 0.00667154 0.0053739524 -0.0050349543 0.0025493912 0.0054154857 -0.003592447 -0.0015428939 0.009174684 0.009061475 -0.009384671 0.007536747 0.009876563 -0.0028556986 0.002466473 -0.0028166382 0.008660575 -0.00026369974 0.0056789797 0.009221694 0.0041011814 -0.0071223015 -0.0019451651 0.0009693672 0.0020160708 0.0029492455 0.009471187 0.00438079 0.009934744 -0.008672381 -0.005749133 0.00201488 0.0036544974 -0.0009821053 -0.0069248467 -0.0032301068 -0.0085302275 0.00940129 0.0037092224 -0.007871343 0.0031875402 0.004175081 -0.005655238 -0.005926002 0.001032397 0.008953336 -0.009633166 -1.1599551e-05 -0.006860799 -0.0009381466 0.0030535148 -0.0050440794 -0.0027626834 0.00065401854 -0.0063808956 0.00726836 0.004384837 -0.008563272 -0.0021378237 0.0031646357 -0.008344133 -0.0070513706 -0.008457758 -0.0054872064 0.0088338135 0.0070897113 0.0028707208 -0.008549422 0.0057686754 0.0046497406 0.00013247052 -0.008850853 -0.0018984152 0.00018690854 -0.0077722147 0.0024688356 0.0004607545 -0.007061039 -0.00828982 0.006046028 -0.008376743 -0.005598665 0.005585966 -0.00048009635 -0.0030551078 -0.005181688 -0.0011797921 0.005280525 -0.0059541753 -0.0049905237 -0.004918311 -0.004743488 -0.0079781115 -0.009749676 0.0075654797 0.00797167
elusive -0.004294969 -0.009324149 -0.0018733644 -0.0037077426 0.009096593 0.0029375737 -0.0059770592 -0.0033574337 -0.009913228 0.0019416292 -0.003986034 -0.0027194165 0.005182027 0.0075922045 0.0043879375 -0.006830959 0.006697199 -0.009643561 -0.006989755 -0.008012229 -0.0022571804 0.00048290344 -0.0037472618 0.0018480053 0.009203098 0.006678121 -0.0010596402 0.009093986 0.0015527601 -0.001973185 -0.0065852418 0.006465986 -0.009064603 -0.0019044979 0.007698112 -0.0025791228 0.0016041378 -0.007343056 0.0049829185 0.007365129 -0.009311332 -0.00328337 0.007893254 0.0029406415 1.9000727e-05 0.00034795082 -0.00986718 0.0099366 -0.0020087932 -0.0048894947 0.002752577 0.0010313264 -0.005926736 0.005784641 -0.0024976227 -0.006185291 0.0072387285 0.00646293 0.008814047 0.001163008 0.000515362 -0.007931747 0.0046493765 0.009358387 -0.00068660825 -0.0017616659 -0.003806547 -0.00048015 -0.007621943 0.0056985444 0.0014799708 0.009292052 -0.0064173965 -0.0050811074 -0.00623357 -0.0072737043 0.0027435606 0.004893188 0.0013441548 0.0035327957 -0.009392403 -0.0010698696 -0.0077473624 0.0029523254 -0.002689458 0.008875639 -0.0034351414 0.006835906 0.0041134018 0.0013629707 -3.4760964e-05 0.008167979 0.002363287 0.008254529 0.0033474213 0.0054252483 0.0051041227 -0.007625124 -0.0057966295 0.0012193829
access 0.00019460502 0.0021520755 0.0010598213 0.007587558 -0.0044171377 0.00032515655 0.007006562 0.0022629672 0.004238061 0.0043035615 -0.0012716979 -0.008333844 0.0030413603 -0.008879067 -0.0026649588 -0.0094009 -0.0004606413 -0.00787002 0.007418712 -0.0049006916 0.00992581 -0.00902768 -0.0042906227 0.0019330442 -0.0030004785 0.0014431906 -0.003691207 -0.00089579745 -0.0057334276 -0.009819949 0.0063464837 0.00036954042 0.006518974 -0.007490379 0.0036746135 -0.009897164 0.007614726 0.0059286407 -0.00610769 0.008209114 -0.0055800774 -0.008563434 0.0014961353 0.003193757 -0.008093879 -0.0089271655 0.009164417 0.0016439601 0.0008728472 0.0024780233 -0.0034962876 0.0017306915 0.0019624587 0.009801144 -0.0056012413 0.0022682596 0.0063135405 -0.0066826926 -0.008944492 0.008654887 0.0068371887 -0.004022565 0.005740846 0.0007953882 -0.005012774 -0.0013427846 -0.004894477 0.0061390805 0.0019570822 -0.008310954 -0.00015339712 -0.0026517676 0.00662051 -0.0011413655 0.007670328 0.001943048 -0.0038332376 0.008152467 0.0029566223 -0.0039749625 -0.0056140055 -0.003081451 -0.005139282 0.0034248563 -0.009295629 -0.005831923 0.0033416448 0.000196876 0.005991625 -0.0036086529 8.356119e-06 0.00247198 0.005460294 0.0016127815 0.009829698 0.0037133445 -0.0071828063 -0.001397202 -0.008386946 -0.0053360644
had -0.0022020664 -0.009707464 0.0092996815 0.0020334802 -0.0011657167 -0.005507028 -0.008507322 -0.009897746 0.0089300005 -0.0025117167 0.004593576 -0.0045318967 0.009956471 0.00365176 0.0010247356 -0.0040560416 0.001208861 -0.0026563478 0.007348515 0.0044642612 0.0009868921 0.0034862438 0.0037370624 -0.0067773713 0.008923387 0.0017362328 -0.005798576 0.008654543 -0.001296756 0.008194059 -0.001501514 0.006977462 0.0027343165 -0.0043771346 -0.0037448404 0.009204305 0.00159154 -0.006005476 0.00035231374 -0.0019718104 0.0015911043 -0.0077309157 0.0073808813 0.0013185958 0.007879762 0.004452682 -0.004398482 0.003749095 -0.00063961814 -0.009854137 0.00824552 0.009644947 0.009658828 -0.0038031056 -0.00845536 0.004821942 -0.007652284 0.008526484 0.0027528019 0.005600626 0.006124683 0.0004647663 -0.0020897784 0.0007699083 0.00982881 -0.0071195564 -0.0015430065 -0.0023489392 0.004857385 0.0064581498 -0.004139032 0.0036264027 -0.004474439 0.0032786995 0.008176402 0.0036308938 -0.004588746 -0.0030076327 0.007868519 0.009601415 0.0058116005 -0.003275962 -0.0018287542 -0.006259549 -0.004307454 0.0033628289 -0.0064891013 -0.0066161025 0.008114202 0.009510542 0.008151299 0.0015077837 -0.008798118 -0.0076020616 0.0015845199 -0.009524454 -0.0074047972 0.0020195546 -0.0029327993 -0.009165345
sometimes 0.0064108903 -0.008951975 -0.007350976 -0.0017567179 0.0016949889 -0.0010387202 -0.0052090534 0.006583351 0.00877515 -0.0074142646 0.009802718 0.0073605794 -0.00746821 -0.0018970952 0.0042505134 0.0070462576 -0.0036661287 -0.00697976 0.004734948 -0.009046263 -0.0058494587 -0.00128035 0.005492344 -0.0056864447 0.004781925 -0.0004383574 0.002655494 0.006402381 0.0014095512 0.0077068377 -0.00031673364 -0.008262899 0.009185962 -0.0048638307 0.004720465 -0.0038956702 -0.007332819 -0.006509146 0.004670964 -0.00066481007 0.0014634897 -0.008931213 -0.005154932 -0.006051168 0.008414111 -0.0087020155 0.0050199563 -0.00086273614 0.00019161409 0.008798783 -0.0035834839 -0.006938617 0.00077246514 0.0077492506 0.009119628 -0.003691868 0.0027365931 0.0049343742 -0.0052982643 0.0068463976 -0.00644757 0.0020994034 0.004596023 0.0043841293 -0.0046711 0.002648815 0.007310377 0.00861097 -0.009518984 0.005577362 0.004967727 -0.0015836468 0.009191387 -0.0041792733 -0.0017365016 -0.0068607624 -0.0037758658 0.00024267571 -0.0032718289 -0.0054195924 0.0065624733 -0.005308891 -0.0063303174 0.0076432615 0.009642388 0.0039868895 3.0333806e-05 0.0007965635 -0.0009609872 0.006876114 -0.0062449328 0.000514153 0.0042882636 -0.00211718 0.0009026032 0.0037145324 0.009712025 0.002177862 0.009502027 -0.0058361534
wish 0.0048024803 -0.0036290707 -0.004270072 0.0012182227 -0.0041244878 -0.005629767 0.0031387086 0.008346179 -0.0065526883 -0.009114918 -0.0033388627 0.0075241243 -0.009699012 0.009599645 -0.00041299732 0.0022997851 -0.0018568104 -0.0057580364 0.0031064574 0.006188349 -0.007056461 -0.0011686286 0.0015559215 0.004250546 0.0071399524 -0.0035497153 0.0072710626 -0.005576253 -0.0022015716 0.0090867365 0.0053884 -0.008494846 -0.0016537 -0.008850007 -0.0016451314 0.0056652045 -0.007419871 0.005512899 0.006088721 -0.0037747505 -0.0096488055 -0.0025259794 -0.0025622747 0.0037635807 0.008924386 0.0019931335 -0.0021217363 0.0029662873 -0.006803249 -0.0012963145 -0.0014751094 0.00960281 -0.005806278 -0.0070326263 0.0023580103 0.0026344417 -0.0071383435 -0.005886327 -0.0011871188 -0.0033107537 -0.008973468 -0.004047816 -0.0029662086 0.0064942767 0.00097132253 0.001607361 0.0002788841 -0.0033846928 0.0030973814 0.0007094388 0.0059778593 -0.0007685702 -0.008901039 0.0008850535 0.009933161 -0.0052457815 -0.005215087 -0.0025115476 0.008580981 -0.0008362658 0.0094108125 -0.008338898 0.009012982 -0.0097140875 0.009192322 0.0018730764 0.0026572295 -0.005854384 0.008438852 0.0060485215 -0.0054810946 -0.009495548 0.006963386 -0.005534939 -0.009314136 0.0026039507 -0.00497849 -0.007360756 0.009728314 -0.0015877286
society -0.0015115191 -0.004029931 -0.004403405 -0.004628236 -0.0055914978 -0.0052988334 -0.008022929 0.009525371 0.006387356 -0.0036005722 0.0024703583 -0.007644495 0.007521969 0.008299433 0.00079444435 -0.0068408 -0.002957967 0.004738359 -0.0029397532 0.0031724812 0.009404629 0.0043590027 -0.0051459954 0.005462903 -0.002876394 -0.0064010285 0.0070081633 -0.009261861 -0.0011329415 -0.0013813586 -0.008417785 -0.0011093123 0.005600037 -0.0052770167 -0.007025806 0.0062047685 -0.0034280468 -0.007819846 0.0002987524 -5.5034652e-05 0.007547079 0.0005676643 0.007880929 -0.009806399 0.004034585 0.006225083 0.0010265516 -0.0028341555 0.0010244674 -0.0008449162 -0.0080999695 -0.0067880815 0.0011982196 -0.0020190063 0.009546912 -0.00095396425 0.00612581 0.0020476868 0.008097833 -0.009295108 0.0023911644 -0.00144925 0.0021581363 -0.00022310234 -0.006641679 0.00905689 -0.002844814 0.0019176408 -0.0064492533 0.0037133126 0.009998302 -0.0011930674 0.006592479 -0.00012150941 0.0079312 0.00964736 -0.00038336092 -0.0017009135 -0.009526154 0.009871385 -0.0025374754 0.0021910737 -0.0017036452 0.008316344 0.008339692 0.0015272538 0.0028809772 0.0064383247 0.0022547706 0.0064484486 0.00015226974 -0.0022800937 0.0053045927 -0.0034163697 -0.0026032839 0.008797943 -0.009150325 -0.0034144677 -0.0029188427 0.0056599793
in 0.007946136 -0.0064462954 0.0057925805 -0.0002135345 -0.009028566 -0.0024445506 -0.0015800146 -0.0044753277 -0.0008035456 -0.005240054 0.005937064 0.009297183 -0.0015884201 0.0033742217 -0.00074131467 -0.0007004203 -0.0070108874 0.0014578808 0.0039029436 0.006906494 0.00654302 0.003544664 0.004664097 -0.0074350163 -0.0013904056 -0.0057805213 0.0067938054 0.007817934 -0.004274098 0.0011582585 0.005110021 0.0018051662 0.0007909028 -0.0067469557 0.009833845 -0.0072514643 -0.006033936 -0.005663021 -0.006350267 -0.0034953847 -0.009393419 0.0011776773 -0.0037523282 -0.0025484012 0.0057860217 0.0035544373 0.0018181946 -0.001379024 0.009876486 0.0002827591 0.005019462 0.009032592 -0.009767406 -0.009160174 0.009925368 0.002732244 -0.0018797216 0.004727548 -0.0043169493 -0.0063994788 -0.008261802 0.007211633 -0.0024458496 -0.0075466987 -0.0059132436 0.0061820275 -0.0024795965 -0.006146172 -0.0016234175 -0.0014743306 -0.0032596886 -0.0020909188 0.0041129147 0.0014484792 -0.0034873553 0.0026854824 0.0052307006 -0.009190692 -0.0075651538 0.0062947613 -0.008945369 0.0005312647 -0.008994895 0.008366269 -0.0042997533 -0.0066270577 -0.0013823699 -0.0011097799 0.0075362786 0.009110241 -0.00034864616 0.002696566 0.0047336165 0.00013908371 -0.005772176 -0.0005921484 0.002184636 0.008300034 -0.003589351 -0.009847004
isolation 0.0053829653 0.009812299 -0.0070640133 -0.0005818233 -0.005059897 0.006431565 0.009656086 -0.00032337641 0.0051357825 0.006539684 0.0044037458 -0.0080374945 0.0031016434 -0.001487697 -0.0021531794 0.0053992886 -0.0013177944 0.009924169 -0.0006360465 0.00025819356 -0.0022897923 -0.008503899 -0.009804682 0.0049538845 -0.006625468 0.0029639257 0.002770665 -0.007017138 -0.0031420689 -0.0058094654 -0.008557031 3.0185873e-05 0.009795209 -0.0066838735 -0.0043626986 0.008340907 0.009297245 0.009813529 -0.009899802 0.0050396123 -0.006639522 0.0068822163 0.0061358926 -0.003373462 0.0068825884 -0.007865928 0.004541195 0.0045736386 0.0059224134 0.005877758 -0.0026570898 0.0038880056 -0.006116183 -0.0064561875 0.002749628 -0.009466329 -0.00029145455 0.0010834354 0.007998164 -0.0070097838 -0.0023255046 -0.0041034073 -0.00522903 -0.0004711402 0.0046081403 -0.0049695726 -0.0016516281 0.008654933 -0.001315872 -0.0035749981 0.007430235 0.0012176188 -0.0003322289 0.009465923 0.0081321765 0.0034087365 0.003361487 -0.0022848223 0.008083341 0.00505615 -0.0054374826 -0.0061238175 -0.00060551264 -0.00791824 0.0033564668 -0.0092247715 -0.0015377038 0.003365137 0.0030448444 0.0031584965 -0.009057139 0.0034222414 0.005340446 0.0034744423 0.0078017386 0.0016624555 0.006264677 0.008835844 -0.00094796444 -0.00080585433
feelings 0.0022294163 -0.00753051 0.0056280307 -0.005000165 -0.0032700675 -0.0018346879 0.008217149 0.0022490371 -0.0009079614 -0.0028477244 -0.0021112568 -0.0012892613 -0.0050846124 -0.0041286303 0.00018914844 0.004553211 0.0017978122 0.00690098 0.00064233487 -0.0032274039 -0.007367825 0.0060102255 0.0069755903 -0.0060573854 0.004679894 0.009502251 -0.0063863765 -0.0028787358 -0.009091028 0.0032290097 -0.0034401324 0.0020433587 0.009443996 -0.008361009 -0.009312575 0.0017194473 -0.008032172 -0.009065944 -0.00935968 -0.0002900098 -0.001101153 0.00074424595 -0.0013392925 0.009041594 0.0087887 -0.0063576796 0.0086942855 -0.009030982 -0.0013369115 0.0025391704 -0.00010970712 -0.0038008047 0.00046888323 0.0010030473 -0.009406286 -0.0048933444 -0.007710929 0.00380549 -0.00088673166 -0.0074842293 0.005634814 0.00023693434 0.0026984208 0.0054334225 -0.004230356 0.007847805 -0.00785832 -0.0034437738 -0.0073699574 0.0009755123 -0.0073927757 0.009062142 0.005536751 -0.0072291284 0.0061766542 0.00660284 -0.007414217 0.0046560657 -0.007722596 0.009318697 0.00468649 -0.00022763657 -0.008943901 -0.0008946357 -0.00027645536 0.0009058155 0.008666185 -0.0027740367 -0.008683801 -0.008834157 -0.0010533389 0.0013715118 8.60073e-05 -0.0022038086 0.008550259 0.00010367179 0.0064166225 0.003993383 -0.007205498 -0.002124254
indicates -0.0077767908 -0.0067543057 -0.003153796 0.0066153253 -0.00083245314 0.008883021 -0.00229192 -0.005303476 0.003914294 0.0022136646 -0.00027866435 -0.0024548003 -0.006000721 0.0040371018 -0.0076092225 -0.00890738 -0.00916044 0.008386193 0.0040025525 0.0070914663 0.009889811 -0.007223447 0.0040295715 0.0028217908 0.0061530797 -0.003386333 0.009326665 -0.005800059 0.0070333104 0.006950605 -0.00039276318 0.005058955 0.006644529 0.0015405278 0.007368711 0.0024131937 -0.0015194041 0.007393778 0.004685203 -0.0031733012 0.0016475867 -0.00013988583 0.0049635554 -0.0054120184 -0.004183703 -0.0009382626 0.0038218268 -0.0065816185 0.007844387 -0.0030890503 0.005741672 0.0028638726 0.006822048 -0.004467559 -0.0032017305 0.0030572987 -0.002775242 0.0059442045 -0.0059537236 0.002589132 -0.0007231625 -0.0006148457 0.002541906 -0.002184007 -0.0042576115 -0.00855181 0.0024882208 0.005325452 -0.0058691264 0.009110085 0.0040353388 -0.005174944 -0.0013120295 0.003928275 -0.007005667 0.002055284 0.005503151 0.0062550684 0.0054254173 0.0036610696 -0.00275413 -0.0060783317 0.008160285 -0.0073027704 -0.001620386 -0.003264802 0.00649045 -0.0062757637 0.0033966522 0.0020489367 -0.0040777046 -0.008242207 -0.008040432 0.0035053184 -0.009558487 0.0057055173 -0.002913194 -0.009172129 -0.005136545 0.0077430974
paint -0.0017160345 0.0064156405 -0.009296811 -0.009154651 -0.0052037295 0.0009417052 -0.007179023 -0.009429239 -0.008893627 -0.00047073708 0.0074075493 -0.008394164 -0.0053288997 0.0015129724 0.003328441 -0.00847459 0.00786275 -0.008229747 0.0047408026 0.0094123185 0.0056729 0.0061936253 0.00825051 0.0034594256 -0.007163022 0.005742102 -0.00831892 -0.0057390225 0.0058952705 -0.00793284 -0.0058587915 -0.0035726263 0.003401021 0.0051966887 0.0020565055 0.0051329318 -0.0026272822 0.004347778 -0.0070714424 -0.00167571 -0.0077429586 0.00018067719 0.0046887915 0.004798059 -0.0046497863 0.0017583168 0.0077974494 -0.0055919304 -0.0037899525 -0.000599498 -0.0047160024 0.008680159 0.00753298 0.009215946 0.0093832705 -0.008455896 -0.00046624566 -0.007612927 -0.0048314244 -0.008856092 0.0034132826 0.000108360095 -0.0069073425 0.007960461 0.00094482343 0.00032021172 -0.0035769977 -0.0033455298 -0.0026603348 0.007618107 0.0023929453 -0.005171403 0.0047554 0.000999095 -0.002724307 0.0077032433 -0.0039448 0.007427139 -0.0042391596 -0.007354964 -0.0045202794 -0.003887653 -0.000724777 -0.0018368916 0.0050921915 0.0054352446 -0.0017262821 0.0037574836 -0.0020243828 0.0007394677 -0.0013570103 -0.0024521775 -0.004721268 -0.004260706 0.00014117808 0.0016608014 -0.009459751 0.0060765673 -0.0016832101 -0.0029888814
theory -0.004801654 -0.004311711 -0.0048158863 -0.009802371 -0.00077315915 -0.0077914796 -0.004812354 -0.00736223 0.00992183 -0.0013487149 -0.007763803 0.005508889 -0.008059704 -0.0019181321 0.0027464314 -0.0070895227 -0.008733964 -0.0066424194 0.007465384 0.009052145 0.003994343 0.0024158135 0.0041509797 -0.0040749754 0.009754336 0.0068791667 0.004118833 0.008933541 -0.008403697 0.00093018095 0.00890525 -0.00095389 -0.0067308154 -0.0022842302 -0.0027839735 -0.0024862015 -0.0018486129 0.0072796308 -0.00030135925 0.0042299065 -0.0037446863 0.008235537 -0.0065089376 -0.00933479 -0.004134539 -0.007353187 -0.0048836796 0.0004904006 0.002381096 0.0017305004 0.005022041 -0.0014106706 0.0022729854 0.00034998788 0.007853423 0.008025012 -0.0019607488 0.0012548448 -0.00604242 -0.0047757565 -0.0069785044 8.092695e-07 -0.004910405 -0.0040493826 0.0014972691 0.002628474 -0.009128335 0.0017526313 0.005116631 0.0041591353 -0.002906624 0.009481194 0.009474084 -1.5717762e-05 0.00086141285 -0.0092601925 -0.004796506 -0.00010875778 0.0040274346 0.00015472513 -0.008743279 0.0058199237 -0.0074259103 0.008548309 0.005505813 -0.006790877 0.0028442685 0.007727965 -0.006104938 -0.0065442617 0.009204229 0.0018121137 0.009710144 -0.009902449 -0.0014807635 0.006915133 -0.0014633207 -0.0017540317 -0.0070801927 -0.005679389
halloween -0.006525636 0.00892454 -0.0015942635 -0.008277608 0.008020028 -0.0029622146 -0.0013354018 -0.0006623629 0.0028169837 -0.0047163814 -0.0002631551 -0.002852598 0.008777714 0.0068813455 0.0011103818 -0.006077503 0.0031332215 0.0011377444 -0.0061267233 -0.0057542454 -0.003102321 0.0023949386 -0.008112588 -0.004987282 0.008096121 -0.0037004938 0.007956305 0.0005331802 -0.005546811 -0.0049613127 -0.00020538877 0.0045757988 -0.006083834 -0.005518205 -0.0068179304 0.006760358 -0.0024064835 0.0040126015 -0.0016280428 -0.0074190204 -0.0012650486 0.00040362953 0.0035807034 -0.008674055 -0.006801957 -0.006545536 0.002985518 -0.0037488388 0.0010133163 0.0041536232 0.00452962 0.0023515155 -0.002877459 0.00063993305 -0.0053947787 -0.006352677 0.008724315 -0.0040558823 -0.009321996 0.0037225422 0.0084524555 -0.0001863698 0.0022639697 -0.0035547097 -0.0041968855 -0.0086101405 -0.007859966 -0.009074864 -0.0059781787 0.008486616 0.0094380705 -0.0016767029 2.6561705e-05 0.007856372 0.0012706174 -0.005149113 0.0026285478 0.0018087561 -0.0037346093 -0.0048954915 0.009632638 0.007648107 -0.008579069 -0.005522594 0.0014122577 0.0009095257 -0.00835647 0.00932706 -0.005374611 0.004603163 0.00923555 0.0010916347 0.004216205 -0.002715365 -0.009673147 0.0006127032 -0.0010794604 -0.009922086 0.007004212 -0.0073944787
for 0.005117812 -0.004414613 -0.009195196 -0.009058886 0.0062350444 -0.005232305 0.005256358 -0.0015731568 0.00969212 0.007167867 0.009884836 0.008373763 -0.007860143 -0.009591606 -0.005567548 -0.0008060146 0.005008972 0.003668206 -0.0020287768 0.005041408 -0.003400566 -0.006808415 0.0047165123 -0.009856687 0.0008882682 -0.005014998 0.007592957 -0.0037192316 0.0028149954 -0.0062574716 0.009621157 -0.005597773 0.0035711704 0.0032363585 0.008931363 -0.005558585 -0.004372677 -0.0062229238 0.006151659 -0.004588217 0.0048125233 -0.00089283014 0.007269736 -0.006032462 -9.6503536e-05 -8.091337e-05 -0.008546856 0.00873811 -0.0021085187 0.00642985 9.6299314e-05 0.005017203 0.0022129787 0.008849384 -0.008329186 0.0084321685 0.00865316 0.0010589614 0.0044188653 0.0038328904 0.004053729 -0.0029485922 0.0028461304 0.00076685875 0.0048239524 0.008417373 -0.007747548 0.00015697742 -0.008738242 -0.0015736845 -0.009035695 0.003163866 -0.0015685153 -0.00069662504 0.0064263665 -0.008101187 0.0011515088 -0.002424808 -0.003732915 -0.007284579 -0.007978639 0.00829158 -0.0074421824 0.004814007 -0.0037918042 -0.0012184085 0.0028056453 -0.008586059 -0.0056526307 -0.007736778 -0.009408473 -0.0047490466 -0.0031610795 0.00048633057 -0.00068793615 -0.007872866 -0.003784573 -0.0027388027 -0.0063811126 -0.006383849
dress -0.0026137035 -0.007910868 -0.008289857 -0.00758285 0.0035647342 -0.007593458 -0.0037132879 0.006655385 0.007377817 -0.006400846 0.0067860098 -0.0078070327 0.00013906183 0.006616176 -0.0028293969 0.009198746 -0.00031979202 0.0046781967 0.0069578863 -0.008559077 -0.006068894 -0.0072730673 -0.0011558682 -0.007078806 9.524402e-05 -0.0080465125 0.00049330934 -0.00039989842 0.0064517236 -0.008886139 -0.0031547088 0.0058747632 0.009241362 -0.0018149451 0.0007702634 -0.006068783 0.0008187171 -0.008145217 -0.007658274 0.0013644084 -7.3618685e-05 0.005564661 -0.009759642 0.0016540389 0.0015727986 -0.0052399207 5.1410447e-05 0.0060328315 -0.0066082748 0.00028471605 0.003915959 0.0016678957 0.0028544636 0.008154571 0.006696426 0.0034956397 0.007992141 -0.0076840417 0.0075154887 0.0038755606 -0.0059101116 -0.0041984855 0.00640516 0.005800074 -0.009876063 0.0012778013 -0.00041046235 0.00081778946 0.00705568 -0.007167381 0.009635385 -0.009453174 0.0062453807 0.009502799 -0.0038140647 -0.009413389 0.006184645 -0.008965191 -0.00831776 -0.0008324279 -0.006683477 0.008756111 0.007833336 0.00083695643 0.007966589 0.009824984 0.0052000363 0.004332417 0.005385193 0.006425621 0.004740243 0.0063940305 -0.0074540623 0.008858413 0.008309352 0.009397279 -0.009006936 -0.003446305 -0.0003447092 0.0041631265
even -0.008227023 0.00017399796 0.0060158316 0.009574046 -0.002839499 0.0018235076 0.006325395 -0.0019919053 0.0019515165 -0.009326778 0.0007056629 0.004569447 0.0044998876 -0.009747182 -0.0051444108 0.0029644168 0.0015908432 -0.0047071893 0.0058223214 0.003507075 -0.007822305 0.0098455055 -0.007703368 -0.0030251923 0.009734319 0.0011436895 -0.005553741 0.0011231048 -0.0040939106 -0.0067426483 -0.007746094 0.0047482587 -0.009030422 0.0040533133 -0.005523392 0.005441398 -0.0043618856 -0.0055805244 0.006344592 -0.008647634 0.001337493 -0.0021244765 -0.00669771 -0.0076559945 0.006758107 -0.0044665695 0.004582109 -0.009664136 0.0019063576 -0.0019610699 -0.0058897273 -0.002797278 -0.008652241 -0.0034719897 -0.0025770592 -0.002285932 -0.005100608 -0.009201722 0.0053415583 -0.001308559 0.006170827 0.0030703046 0.008556778 -0.0035143215 -0.008898597 0.0013395743 -0.008989929 0.00604545 0.0084333485 0.00050515635 0.0076985424 0.008537992 0.0042104423 0.0054201027 0.0091270385 0.0011404925 -0.00825749 -0.00832583 -0.0017888768 -0.0006245993 0.008806868 -0.009312088 -0.0025926528 0.009115326 -0.001450566 -0.009081369 0.0020175274 -0.0058331043 -0.005483988 -0.006336645 0.00013278228 0.00722801 0.004114576 0.008146062 0.008857613 0.0045243884 -0.0060492954 0.0070713176 -0.009526886 -0.0047919457
t 0.007999205 0.007920074 -0.005454727 -0.007976482 0.008097363 -0.003824915 -0.0040624007 0.0072182287 0.005410442 0.0038128283 -0.0012380928 0.008634044 0.0084499875 0.0069662347 0.009084297 -0.0057956767 0.0010016403 -0.0016399282 0.006349137 0.009763419 0.005167666 0.00408845 0.006548411 0.0058891713 8.5098785e-05 -0.008351129 -0.00218605 0.009062165 -0.0051028505 0.0010050999 0.0048980964 -0.006959838 0.008207213 0.0014397439 0.0024237626 0.008340489 0.0014606852 0.00088411185 -0.009440569 0.009847433 -0.00985418 0.008550747 0.005029725 -5.412475e-05 -0.0078702 0.00936091 -0.0014078968 0.005326185 -0.0030368336 -0.004911207 0.00018977984 -0.008060907 -0.0066481796 -0.009460499 0.0053596054 0.00041694802 -0.00088706834 0.005086933 -0.0019850612 -0.007396449 0.0028603452 -0.005961832 0.00049274217 0.009468947 -0.0009674309 0.0061655957 0.0044573303 -0.0035326479 -0.0052493783 0.008854237 0.0020967356 -0.00045639247 0.0009231227 -0.004905924 0.0035543025 -0.0031292352 0.0042147487 -0.004557028 -0.0008189454 0.0038928124 -0.0071915714 -0.0025029806 -0.0087385075 0.0015581293 0.0019764712 0.002389568 0.0010905322 0.000109605455 0.0022180625 -0.00094592216 0.005940987 -0.0029451149 -0.0050978423 -0.00532381 -0.009640379 -0.008096514 0.0021237219 0.0039829505 -0.0057882355 -0.0096935695
can -0.0061553735 0.004667784 -0.009078024 0.005084353 0.006348089 0.006120131 -0.00763206 0.0028457018 -0.0054668095 0.009046046 -0.0043205097 -0.0023631463 0.00521541 -0.0008294437 0.005085088 -0.0042309957 0.0049814996 -0.009791112 0.006074624 -0.0012529996 -0.0056149615 -9.951635e-06 -0.0012190368 -0.0007175903 -0.0017680037 -0.009273463 -0.007806854 -0.006808221 -0.008631843 -0.0045331195 0.009187715 -0.0018276491 -0.0075937756 -0.005911461 0.003605044 -0.0027005898 -0.0015573123 -0.00426366 0.0059645786 -0.007842405 -0.0074803834 0.007510525 -0.0069632013 0.0021615808 0.00037735983 0.009682834 0.004223968 0.0020600553 0.002753829 0.002290806 0.0022130879 -0.0027404905 0.004094587 0.0061072893 0.008923667 -0.000749679 -0.0012147982 0.0064535923 -0.008472065 -0.0006629171 -0.006668656 0.0047825035 -0.008947849 0.0032486443 0.009010158 -0.0020576718 -0.008833218 -0.008170165 0.00323629 -0.005343749 0.0064403075 -0.0011863819 0.007866299 -0.00049955107 -0.0062049953 -0.0057048667 0.0007701586 -0.004775553 0.006564438 -0.0035163157 -0.0056335316 0.00095483847 -0.004876723 -0.008224884 -0.0052696806 -0.0018765116 0.00042737217 0.003638536 0.006872213 0.0067343307 0.0058709825 0.00032391996 -0.0058268784 0.009000385 -0.000641463 0.0047141546 -0.0014190351 0.005797983 0.0052967086 -0.007297316
girls -0.0027400933 0.00011624436 0.0020098037 -0.009286173 0.004850919 0.0033629667 -0.00016573515 -0.003473799 -0.0076225223 0.0075922925 -0.008614003 -0.007420118 0.0044578835 -0.008511574 -0.0032661462 -0.0021075134 -0.0019042892 -0.006836738 0.004298379 0.0009855188 0.0036636333 -0.0013045905 0.006947375 -0.009525715 0.0058302586 -0.0051356247 0.001692531 -0.0069566853 -0.0025010062 -0.006429403 -0.003327827 0.009704202 0.002698239 0.0015846826 -0.00609806 0.005594016 -0.008130878 -0.0022872868 -0.006487993 -0.006396592 0.0023047614 -0.0032822771 0.002408134 0.003912495 -0.0062760934 -0.0017353492 -0.0027801222 -0.009825567 -0.009845345 0.0011089348 0.004397958 0.00019392167 -0.0048780655 0.0036195114 0.0016944481 -0.00945118 0.007211597 0.0077582207 -0.0077459095 -0.0007712502 0.006020848 -0.0027847607 -0.00033322696 -0.004229446 0.0060986304 0.0070270845 0.0020766107 -0.004702259 -0.0018516744 -0.003999503 -0.00978024 0.0078090406 -0.00058781385 -0.00059809774 0.007094672 -0.0090575935 0.006325669 -0.0075635253 -0.005390605 0.005070238 -0.0035271954 -0.0034818337 -0.006326926 -0.0038961142 -0.0026894228 -0.004106421 0.009461642 0.009460889 -0.00037344612 -0.00027987055 -0.005629683 0.007923356 -0.0049539856 0.0058865896 0.009133731 0.0057747634 -0.0009363835 0.005538226 0.0069401274 -0.0038838666
poor 0.00066577183 0.006504548 0.00585065 -0.0001772645 0.0023911672 -0.006522211 -0.009352 -0.0049296455 -0.0053990767 0.0005805949 -0.003973723 -0.0003974023 0.007638007 0.009738697 0.007888873 0.0023738907 -0.0027119992 0.0024264993 -0.0026872016 -0.008961968 0.006904779 -0.00862953 0.0038120435 -0.003950397 -0.0055585844 -0.001047935 -0.006576613 0.008570358 -0.0068908106 -0.008962668 0.0057867696 0.0044418946 0.0047433637 0.0024067552 -0.0037329097 -0.0050960192 0.0017761814 0.008358105 -0.0056697465 -0.0023900121 0.00185686 0.006723251 -0.006414236 -0.0045286985 -0.002639916 0.0013394214 0.0053562503 0.0055278195 -0.008712597 0.0072716307 -0.0024893181 -0.0028707583 -0.008861351 -0.0057795807 0.009454519 0.0030827706 -0.008019668 0.002795769 -0.007086577 -0.0090680495 0.0038589025 0.0020299582 0.001264746 0.008842774 0.0062464727 -0.005047672 0.0027191467 0.0025449293 0.002379624 0.008335993 -0.006922054 -0.00230314 0.0010350962 0.0063900277 -0.0006402402 0.007908086 -0.0046558585 -0.009028701 -0.0070786956 -0.004139334 0.009552852 -0.005123492 -0.0048609944 0.0081804665 -0.007477013 0.0019990322 0.0057273717 -0.0075199422 -0.00026137277 -0.0023647563 0.005578481 -0.0045525664 -0.0066153435 0.009881436 -0.0046036276 0.0076186056 -0.008449414 0.007015388 -0.003397608 -0.007818418
so -0.0011709845 -0.002370403 -0.0018185556 -0.0011773551 -0.006517111 -0.0035448861 -0.0031973375 0.0077222944 0.0058669113 -0.00089425204 -0.0048165633 0.005292305 -0.008837635 0.0016494894 0.0040110014 -0.001947695 -0.004524325 -0.008227694 -0.008287414 0.0071273814 0.0036371017 -0.0003864181 0.009710745 -0.008544136 0.000589273 -0.0004442966 -0.008070466 -0.009099837 0.0071887625 -0.0036328936 -0.007901046 0.007952678 -0.006254277 -0.0031218564 0.0017756212 -0.003351413 -0.007964717 -0.003921268 -0.009014121 0.0013977576 -0.004628701 -2.008319e-05 0.0027241493 -0.0023730695 0.008818167 0.007042544 -0.00055088877 -0.00063501 0.0008503473 0.00675033 0.008948386 -0.001927998 -0.0015925551 -0.0029719651 0.00050304533 -0.0064749764 -0.0018674755 -0.008648097 0.00065804005 0.0014342046 0.0037278486 -0.0028739583 0.0059305704 -0.0070778416 0.009816702 0.00053309917 0.0022955155 0.0043562376 0.0004193616 0.0025956917 0.0016146469 -0.009616955 -0.0031474447 -0.002594576 -0.009262821 0.003435321 0.0047997977 -0.002081517 0.007417623 -0.0012108183 -0.00027866484 0.005782436 -0.008473257 -0.0069108545 0.0073512113 -0.006582332 0.008467945 0.0053499998 -0.008046313 0.008401109 0.0063182353 -0.0067148055 -0.008462727 -0.008834657 0.0038312161 0.0063368 -0.0021347213 0.0013413358 -0.008393618 -0.005119375
wave 0.0047040544 -0.009060236 -0.009243479 0.0010104467 -0.008581188 -0.006944225 0.0047523794 0.008016681 -0.007363375 0.008100958 0.009378345 0.0047048843 -0.0044067856 0.0096704895 -0.007716135 -0.0038969354 0.0019327283 -0.007634473 -0.009872895 0.002862358 0.008182847 -0.0051012766 -0.0042857034 0.003911357 0.0006884169 -0.008540383 0.0065513025 -0.003156593 0.0035753073 0.0031539178 0.008886053 0.0087246895 0.0073153917 -0.008296537 0.0012026536 -0.000951244 0.0008773091 0.008925546 0.0047654263 -0.008926836 0.009816683 -0.0008899536 0.00039408985 0.0049557667 -0.0062123723 -0.00039863295 0.0013659301 0.007045279 0.004278853 -0.0019393585 -0.008459538 -0.0038874932 0.008773615 -0.009494572 0.00985022 -0.00015386366 -0.0011194692 0.009602428 0.009570222 0.008264459 0.008996198 -0.009981419 0.007506186 -0.009368922 -0.0077183237 -0.008818471 0.0021512737 0.0071819434 -0.006311397 -0.002717298 -0.0023582645 -0.0044779014 -0.0013025013 0.004860307 0.003719677 -0.0032468168 -0.0037123056 -0.0023396923 -0.00323918 0.003949766 0.009732425 0.0078564575 -0.0075668255 -0.0064444477 -0.009137813 -0.0059327884 0.0036341548 -0.00601488 0.0016992181 0.008887798 0.00334039 0.0011939671 0.008917342 0.006414279 -0.0014305343 -0.006202052 -0.0010567369 0.007275412 0.0074762646 -0.0040405984
material 0.009930451 0.0024078223 0.0051194946 -0.0056668934 0.0043905852 0.0002515167 -0.009591575 0.005083901 -0.009026456 -0.0064626704 0.002781162 0.009279408 -0.0021318526 0.0069749923 0.0050736493 0.004059651 -0.006188586 0.0050794384 -0.008302055 -0.0043328763 0.0054438286 -0.008140198 0.005751793 -0.0034983326 2.768691e-05 -0.0073640384 -0.006248434 -0.0033240735 0.00859264 0.005352284 -0.009679428 -0.0065878085 0.0034430085 -0.008545328 0.006661692 0.006167613 -0.009305897 0.0086483285 0.007850222 -0.0018072244 0.0017990061 -0.0057061845 0.006200099 0.0077088396 0.0040538195 -0.008852209 0.0049319775 -0.0030581304 -0.0022032384 0.0060972143 0.0018634232 0.004619605 -0.0062806588 0.005250006 -0.0035419893 -0.000382031 0.0062340708 0.0040714573 0.00746512 -0.003924475 0.0035458447 0.0073137763 -0.0032888514 0.0057481527 -0.009409509 0.008860635 0.0037539653 0.0053124786 0.0046349936 0.004568568 -0.0033168069 -0.0062022405 -0.002266121 0.0014019145 -0.0029299639 -0.008493399 -0.006287302 0.008339049 0.009335048 0.0059436536 -0.0041234107 0.0006944412 -0.008584399 0.006647304 0.00045003422 0.007363266 -0.0053694635 -0.0028447334 0.0028649736 0.0034668115 -0.0065296334 -0.007362561 0.0020225486 -0.009009715 0.0058092447 0.0054761176 -0.0038121769 -0.0056388676 -0.008335702 -0.0019066124
worst 0.0069718347 -0.00020300757 -0.0079501225 0.008896159 -0.008534541 0.005550056 0.006463123 0.0009951509 -0.00870466 0.006172877 -0.007850203 -0.00502438 0.00961909 -0.008280144 -0.0076123797 -0.0048972066 0.0034631393 0.0019207747 -0.005549534 -0.003287904 0.0085758045 0.009775723 0.0099150045 0.0010404203 0.0040345923 0.0013566541 0.0016627861 0.004827038 0.0022014896 0.0002987108 -0.0031410796 -0.006535966 0.007996801 -0.0059861573 0.002781742 -0.0009022066 -0.0036452187 -0.00494947 0.0032173505 -0.0058638765 -0.0074726157 -0.0026462127 0.0046770847 0.00604698 -0.0014496907 0.0073082075 -0.0076075527 -0.0047368747 -0.0078634145 -0.006057138 0.007315475 -0.0092856465 -0.008657736 -0.00979966 0.009198259 -0.0026625667 0.0010110829 -0.006127806 -0.0025319504 6.6912595e-05 -0.0025051127 -0.0073626298 -0.006193849 0.0025255347 -0.009490209 0.0011577186 -0.0019897101 0.008275161 -0.00040540335 0.006208904 -0.0070928764 -0.007563819 0.005553547 0.0009503035 -0.005077923 -0.0026712832 0.008772877 -0.009175091 -0.0036849924 0.0009928182 -0.00023468898 0.009518234 -0.001941367 -0.0070974296 -0.007692329 -0.009896263 -0.007821268 -0.006029877 -0.005937977 -0.001400731 -0.0005340216 -0.00470951 0.0021257554 0.00387174 0.0090456735 -0.004645549 0.0051278397 0.007251705 -0.003758849 -0.0074341493
work -0.0033477312 -0.00687968 0.0064869314 0.009396426 0.008292127 -0.0085461475 0.0050486727 0.005125059 0.005613342 -0.008328466 1.4226015e-05 -0.0068457774 -0.00891233 0.00249746 0.009950201 0.006495233 -0.0070685325 0.0023439666 -0.0039002525 0.009910424 -0.00880212 0.009735342 -0.0065028975 -0.007019402 0.0016227877 -0.0006770046 -0.008525412 -0.0006264853 -0.00036914894 -0.006272586 0.0057670707 0.0031546229 0.008408505 0.0073855426 -0.00664294 0.0048107016 0.0056961654 0.0057740607 0.005200143 -0.004794206 0.004333767 0.0013169065 5.3534088e-05 -0.006453291 0.0015255597 0.0052764406 -0.009225313 0.008593043 0.002989436 -4.958735e-05 -0.0033433521 0.0003387396 0.006074823 0.0047814148 -0.005950276 0.007875308 -0.0006149748 -0.008165902 0.008865192 0.00506421 0.0036160592 0.007912485 -0.007523564 -0.0058346028 -0.0020066833 -0.0040724985 -0.0016088128 -0.00059303426 -0.008401661 0.0018998785 0.0025423053 -0.0008430694 0.004888541 0.0014796393 0.005996039 -0.0022556698 0.008524037 -0.0015684196 0.0030638156 -0.003792554 0.006101441 0.0030854864 0.00053538283 0.008755109 -0.0078586675 0.009713159 0.0007886224 -0.0023588906 -0.0041199727 -0.009097844 -0.0022141081 0.0026967835 0.0065635913 0.009072825 -0.0087271985 0.009070178 -0.008838461 0.003737077 0.008022859 -0.002511529
got -0.007857569 -0.008332789 0.0011546396 -0.00075934 -0.009498581 0.0030919416 0.0022514118 0.0044625113 0.004427006 0.003226959 -0.00981357 0.005730569 0.0042594774 -0.007743302 -0.0021121122 0.0003601979 -0.00063991564 -0.0009628595 -0.0055337185 1.7432789e-05 0.0044154604 -0.0006805987 0.00079588924 0.0020890778 -0.0039739674 -0.007869151 0.009161289 -0.009788361 -0.0024774247 -0.001264487 -0.0076672705 0.0017701786 0.007943312 -0.0015226408 0.0081045255 0.0003054548 -0.0057693655 -0.001988586 -0.0007280292 0.0062555145 0.007132191 0.006202616 -0.006001662 -0.006979665 0.006095669 0.0024799719 0.005337539 0.00046099524 0.007865724 -0.008882436 0.009879245 -0.00823761 -0.0017100926 0.006290017 -0.009234549 0.004320344 -0.0069719492 -0.006839677 0.002306695 0.001739372 -0.0027923724 0.007877552 -0.007016732 0.00045827802 0.008735993 0.0020298765 -0.0068498794 0.0035325242 -0.0050307917 0.0005861634 0.002855355 0.007587626 0.007379602 -0.0048897527 0.00952366 -0.005492283 0.007624254 -0.007980302 -0.007822752 -0.0011148095 -0.0081532085 -0.0034626315 -0.0005141677 -3.1188983e-06 -0.009966925 -0.006502015 -0.007413218 -0.0003882743 0.005196011 -7.648038e-05 0.009961488 -0.0038843516 0.008051508 0.006088274 0.008265933 0.00010656124 -0.0004298881 0.0018879483 -0.009926849 0.009048746
pound -0.002384512 0.007542035 0.002041288 0.002892873 -0.001239746 -0.009896283 0.0014018891 0.0028879605 -0.009799946 -0.003908435 -0.00234293 -0.0050672935 0.0039564352 0.0021008924 0.0043317177 -0.0064747813 -0.0059983353 0.004716811 0.0067803552 0.005524614 0.0048000827 -0.0072420663 0.008163963 -0.006962431 -0.0076729376 0.0085096145 -0.0024697194 -0.009388967 -0.0030808768 0.0059607574 -0.0028966118 0.004937008 0.00010078082 0.004062711 0.0011815206 -0.009329561 -0.0036468618 0.008840044 0.0015388413 -0.005887152 0.0070171477 0.0074558645 0.0072471267 1.5393305e-05 -0.009145321 -0.0034845395 0.005135655 -0.006506837 0.009743834 -0.009766815 -0.0081276335 -0.0053144707 0.006021428 -0.0076786536 0.008635058 -0.009869912 0.0034984201 0.003296497 5.4772787e-05 0.009546816 0.005107153 0.00028382798 0.0048194174 0.00641286 0.0030087156 0.009412299 -0.001338225 -0.008387209 -0.0044765673 -0.0014916004 -0.0072726114 -0.0015691895 0.007937494 -0.005025555 0.0050979904 0.004347216 -0.0006961302 0.0010755499 0.0057259114 -0.0066381185 0.0038925821 0.008915832 -0.0035131222 -0.0076153916 -0.009200701 -0.009005365 0.0038749233 0.0051173544 0.007037594 -0.0014554388 0.0009709996 0.003051712 -0.009874895 -0.009410973 0.004588224 -0.008402571 -0.0031768503 -0.004306036 0.005911423 -0.003438716
lumber 0.009986501 0.0005662861 -0.0051578274 -0.0036379588 0.0012663221 -0.005378233 0.0073955897 0.00903689 0.004287171 -0.007357427 -0.005945759 3.3671204e-05 -0.0010203038 -0.005529608 0.007939876 0.0062351543 -0.0041821054 0.0023848368 0.0051366603 0.0023970613 0.008576235 -0.001281628 -0.006523554 -0.00083687843 -0.008327966 0.00985223 -0.0086229425 -0.0015098597 -0.0028518834 0.0031482144 0.0049758484 -0.008239526 -0.004407143 0.00047628512 0.003999805 0.0051230215 -0.0013822943 -0.0006205711 -0.007835135 0.0045408322 -0.007638761 0.0032837186 -0.0034377233 -0.007802388 0.006883039 -0.00045508568 -0.009554686 -0.009391384 0.00059104036 -0.008183407 0.0037461112 0.0034502647 0.0033483065 -0.0056033037 0.007986062 -0.008990528 0.007461519 -0.0006415644 -0.0014806092 0.003969106 -0.0024925973 -0.004396227 -0.0024122428 -0.006186301 -0.0003527232 -0.0053632674 0.0046056514 -0.009541088 -0.004361816 -0.009161779 -0.009631891 -0.00075232174 -0.008079185 -0.0056918496 0.0027753194 -0.0014473675 0.003105781 0.00826717 -0.009631923 0.0060822763 -0.007963838 0.0065425197 0.0074582733 0.008581729 -0.007965491 0.003334257 -0.007827714 -0.0012417086 -0.0052199718 -0.008532284 0.004936139 0.0044337427 -0.0040531745 -0.0077717574 0.0035621566 -0.0039378563 -0.008862925 -0.0043840227 -0.0021789705 0.008763938
s -0.0064565563 0.0073333345 0.0061212946 -0.004909404 -0.0017580686 -0.0025067895 0.0031243023 -0.00045107352 -0.0027649456 -0.009046812 0.00643464 -0.009617912 -0.008651096 0.0013795636 0.0029758753 3.5366893e-06 0.00036926384 0.0025878265 0.001802199 0.007566876 -0.0034458113 -0.0072328737 -0.007882534 0.007920275 0.0019430361 -0.005808092 0.006390976 0.008451148 0.007945851 -0.006828326 -0.0051402193 -0.0020120526 -0.0066167396 0.0047272486 0.005664238 -0.005993049 0.00720019 -0.0076547 0.006200937 -0.004626212 0.0019632122 -0.0032721749 0.0033891487 0.007719396 -0.0013941542 -0.0049857507 -0.00856356 0.0036366652 0.0042313305 0.006697179 -0.0042890613 -0.009734365 0.0068232547 -0.004525076 0.0044187354 0.008053112 -0.003940168 0.0016333619 -0.0035906176 -0.0066134986 -0.0056830174 -0.00013599782 -0.0075131813 -0.0019965158 -0.0024880725 0.006711096 0.0013642384 0.0058530923 0.0038168614 -0.003517728 -0.0050930097 0.009660958 0.0070718764 -0.009043108 0.0052474565 0.008192697 0.009191647 -0.008052307 -0.0020139525 0.001084164 0.002906639 -0.0016209929 -0.0047068833 0.0064687855 0.006930844 -0.0003891567 -0.0058417995 -0.004369182 -0.0051482245 0.004255829 0.00051575544 -0.002358728 -0.009085761 -0.001495883 0.00643362 0.0063256593 0.004223691 -0.0028770752 0.0090513285 0.00059942517
enemy 0.001133438 0.006177355 -0.0065951897 0.006534361 0.009793965 0.003669804 0.003429191 0.004202707 -0.0019461034 -0.008099856 0.0014809159 0.00090276555 -0.0067961165 0.001957753 0.005446972 -0.007181324 0.0025122329 0.007765368 -0.008618719 0.003510267 -0.008566357 -0.007931461 0.0070913853 -0.007563466 -0.0013694491 -0.0079287365 -0.007867835 -0.0071050865 0.00040453923 0.0017968859 -0.007906623 -0.008052451 -0.003178931 -0.0018282688 -0.0061719506 -0.004218999 0.003607923 0.0030680408 0.0065930258 0.004245024 -0.0008832192 0.0027668877 0.009048579 0.001909875 0.0018223472 0.0011248067 -0.009290293 0.0053509693 0.0050427704 2.2728227e-05 0.009215472 -0.005720337 0.0032473349 -0.0078111165 -0.008941042 0.0020016765 0.004746158 0.0060974807 -0.008686289 0.004351113 0.0023990504 0.0041570878 -0.0006707687 0.0055434895 0.0072924444 -0.008383044 -0.009934202 0.0070161675 -0.0009563463 -0.009376359 -0.004084966 0.001194241 0.008428325 -0.0016891067 -0.0010187352 -0.007361945 -0.0076523144 0.0014623846 -0.0004740493 -0.0076999143 0.0008777496 -0.0089876 -0.0024790035 0.0042170435 0.0011145747 0.007830004 0.0065866 -0.0011869444 0.004958037 0.006132677 0.008733792 0.009080283 0.0049254787 0.004613522 0.007190009 -0.0015672116 -0.005650358 0.00887003 0.0012101328 -0.0050568264
break -0.0008764436 -0.005225055 0.009109147 0.0033953164 0.0042889626 0.0064946637 0.008169038 -0.0047702123 -0.0063478095 -0.0037309823 -0.0037117184 -0.009458688 -0.0006077134 -0.008103884 0.009778167 -0.0034154772 -0.0063129184 -0.008106901 -0.003556015 -0.009561799 0.0007827876 0.0054154024 -0.002865642 0.007662742 -0.0018723587 -0.0072710924 -0.0031296143 -0.0031410148 -0.007104207 -0.009681789 -0.004059317 -0.0015882171 0.005008438 -0.0076233647 -0.004976141 0.0013703312 -0.0016749947 0.0035418961 -0.0018796704 0.004316862 0.007995561 -0.007912585 0.003759109 0.0059830737 -0.00057577755 0.0067711757 -0.0054209693 -0.0045796516 -0.007847632 0.009467117 -0.009401023 -0.0032570306 -0.00043567 -0.0048488616 0.009472366 -0.006836102 -0.00801491 0.0092399055 -0.008299737 0.009694918 -0.0040956386 0.0056667067 -0.00040967783 -0.003994818 -0.0075039505 -0.0062608593 0.0068443324 0.0063236216 0.00015354122 0.0063972436 0.0038514365 0.003838614 0.0026867494 -0.009711028 0.009264381 -0.008207118 -0.0030075791 0.0014218984 0.0052473885 -0.009213359 0.0016813364 0.006362818 -0.008768289 0.009558531 -0.0052276165 0.009544573 -0.0065158927 0.006596335 0.009371534 -0.009221029 0.0002985384 -0.007728352 0.008128758 0.009577465 -0.0060445494 0.0008447016 -0.002236487 -0.0077536446 0.0008191759 -0.009911029
wind 0.0026107517 -0.007689897 0.0056764376 0.0075713466 -0.0025445754 -0.0040210667 -0.009617493 0.004933552 0.0029078901 0.0087415315 0.0033023644 -0.002914241 0.0035628285 0.008626404 0.009240755 0.007636787 -0.008549177 -0.0075645326 0.007270843 -0.0074553406 0.0032521144 0.008032157 -0.003201092 0.0067571257 -0.008153418 0.0064862687 0.0055867215 0.003334781 -0.008132692 0.009158762 0.008236471 -0.0015683845 0.0041098082 0.006356395 -0.0017398787 0.005500064 -0.004036885 -0.0012847281 -0.0012153438 -0.0041684466 -0.0006993707 -0.00770413 0.0036334665 0.009060642 0.0047868937 0.006390149 -0.0047453768 0.0048518754 -0.006687684 -0.0049770204 0.009886985 0.0063924743 -0.004994563 -0.006071114 0.0072290623 0.0027064306 0.0065894416 -0.0067662047 -0.00097490696 -0.000947802 -0.00022353264 0.0022219555 -0.006747331 0.0043837726 -0.0027450921 0.0083675645 -0.0010358484 0.009155908 -0.0008505254 0.0052127917 -0.0076026497 -0.009096059 -0.00033625675 -0.002253367 0.009972911 0.0045232065 -0.005565469 0.007364951 0.0005882721 -0.009554134 0.005696512 -0.0020046837 -0.009431983 0.008707677 0.007233841 0.008549774 0.00037512736 0.0076834857 0.005191446 -0.0069310884 0.009289181 -0.0035595219 -0.009746013 0.008567206 -0.005296229 0.00839388 -0.007851343 0.009280894 -0.005920485 0.003996705
raises 0.009786482 0.004203734 -0.0021276553 -0.0049605286 -0.009718867 0.0042045168 0.007437887 -0.0047347527 0.0059247203 0.0068352083 -0.009012958 0.0020919368 -0.0068414137 -0.0043328037 0.00085346744 -0.007027301 -0.004135617 -0.007514112 -0.0070269406 -0.00693999 0.009916401 0.0083233565 -0.00018357241 -0.0026260477 0.006244978 0.0013423372 -0.008992917 -0.0070591574 0.0010298063 0.007933251 0.0031965317 0.009839072 0.0065517332 0.00029291582 0.008649389 0.0089954715 0.008060839 0.009404595 -0.009383863 0.003515452 -0.0078112436 -0.0071415356 -0.008425095 0.0032025608 -1.0463262e-05 -0.0063499385 0.005546145 0.007901078 0.00429726 0.0078358175 -0.0042771483 -0.006390071 0.003981867 -0.0029281036 -0.0071771 0.0036685474 -0.003319672 -0.0051985416 0.0026293553 0.0068566226 0.0063990857 0.00014556843 0.008650452 0.0029466199 0.0065695555 -0.000895972 0.0021099357 0.0061621214 -0.009794232 0.005828943 0.0012834216 0.0060810056 -0.0014437145 -0.0026974496 -0.005583382 -0.0028493076 -0.0025695353 -0.005146722 0.0009714111 0.007993377 0.0051351096 -0.0076501044 -0.0074189124 -0.0028933545 0.0039074207 -0.009317483 0.006124849 0.0031165986 -0.0028228187 0.009192344 0.008062549 0.0007142184 0.0048307125 -0.009301354 -0.008789831 -0.002948495 0.009277152 0.0032372049 0.0056104534 -0.006765151
witch 0.0042439085 0.00039508616 -0.0009129195 -0.0032489828 0.004967657 -0.009104729 0.00511499 0.005668188 -0.0024353073 -0.004202677 -0.007393359 -0.0063820826 -0.00510496 0.003150061 -0.0047929925 -0.0012000314 -0.008922259 -0.00350907 -0.00077773014 -0.007948151 0.0032544069 0.009753022 0.0043940013 0.0018645442 -0.0048676385 -0.0011319051 0.0022385002 0.0017351559 0.008809941 -0.0009310033 0.006997545 0.005789406 0.0030423298 0.007315032 -0.0049414486 -0.003953688 0.006974813 0.008612018 0.003148351 -0.004097337 0.0076423623 0.0027201741 -0.0002341782 0.008863081 0.0043054065 0.003950996 -8.639084e-06 -0.008928496 -0.0031198137 0.0024324835 -0.005603844 0.0071158702 0.0074473 -0.008947617 -0.0053810333 -0.005986018 -0.0006582554 -0.0018011264 -0.002044794 -0.002204022 0.0035707508 0.009613422 -0.0045901434 -0.008279911 0.0037444148 -0.0064524617 0.0066887927 0.002661941 -0.007865513 -0.007751149 -0.00925471 0.0023513758 0.0027407845 0.002621382 0.00017447534 0.0010401709 0.0030708646 -0.0015617481 -0.0080308765 -0.00062238384 0.0037001376 -0.002592834 -0.0021370603 -0.0022506176 0.0072617778 -0.0030432676 0.009449149 -0.0038796905 -0.009966639 -0.006547663 -0.0043683597 0.001244848 0.005120647 0.0021276267 0.009044056 0.00089837564 0.005635614 0.00016217558 -0.002118186 0.006218757
loading 0.002017998 0.008266141 -0.008308432 -0.008751294 -0.00053361495 -0.0019000538 -0.002349976 -0.0005808432 -0.00507499 -0.008027281 0.008247147 -0.0033517163 -0.0028379753 -0.001644621 -0.0012173767 -0.009195022 -0.001802406 -0.0013472766 0.008650231 -0.007961523 -0.004749804 -0.0018767171 0.0028844608 -0.0060196454 -0.005549375 -0.007965494 0.0055279615 -0.008720826 -0.0032563626 0.0002966687 0.0014539417 -0.009948995 0.008657511 -0.0020670525 0.0003491094 -0.008775704 -0.008167685 0.003767474 0.004000979 0.0029839948 0.005849733 -0.006927909 -0.0012527318 -0.0027248613 -0.0014032637 0.0044817794 0.001364791 -0.0074492577 0.0032333226 0.006250322 -0.0060921838 0.0032169737 -0.0043175956 0.008821938 0.004133538 0.0020366092 -0.001012775 -0.009112593 0.008651941 -0.0018212755 0.007374531 0.0037715365 -0.008252654 -0.00061832974 0.0027445322 -0.0025532998 0.009727719 -0.004986068 -0.007175392 0.0037963975 -0.0035716398 -0.006887481 0.0020431061 0.0052732797 -0.0054941727 -0.0043863934 -0.007176514 0.0015489365 -0.0047646165 0.008436012 0.0007081926 0.001870789 -0.0033433954 0.0073784157 -0.00066689285 -0.008217077 -0.0073377965 0.00021441243 0.0077429432 0.0030860063 -0.005318582 -0.0067500058 -0.009859592 0.003923489 -0.00950976 0.0031894164 0.0016618511 -0.0008236511 -0.009951938 0.005878035
soup -9.058297e-05 -0.009928903 -0.0075494763 0.008570455 0.0018994794 -0.008184288 -0.00081965554 0.0054218792 -0.009327552 -0.006878343 -0.0010295482 -0.0097765755 0.00048720802 0.0019470374 0.008552404 0.0009706192 0.0013043303 0.0048741 -0.0042905146 0.007225571 0.00016099433 -0.00066861074 -0.009690966 0.0005121313 0.0067844125 0.0017551985 -0.008097701 -0.0033329902 -0.0060518524 0.006022838 -0.006461484 0.0052454006 -0.005255 -0.0068411683 -0.007588685 0.003828969 -0.008802684 -0.005714303 -0.0070725577 -0.0043219235 -0.004035778 0.0014866192 0.0064797634 -0.0011913619 -0.0054849144 0.0015622489 0.0056291698 -0.0052809343 -0.005345979 0.0051677846 0.0062752473 -0.0077832905 0.008207459 -0.009854413 -0.007410982 -0.005886097 0.0018242446 5.250956e-05 0.0034598482 0.0070065516 0.004794145 -0.0032072098 -0.0064248806 -0.008249664 -0.00048943755 0.00974366 -0.007681596 0.0036547272 0.0043718563 -0.0043401876 -0.0069617946 -0.005442762 -0.0050259023 -0.0069955075 0.005942706 -0.007778944 -0.0029338598 0.0043797954 0.000169324 -0.0076888166 -0.004704352 0.0036007941 0.0025329862 -0.0019585984 -0.0007326116 0.0025412696 0.001429676 -0.0026305672 0.005348506 -0.0076594376 0.0063734897 -0.009989298 -0.0022614 0.0066832528 -0.0035892166 0.0065414966 0.005431111 -0.007400936 -0.00024214131 -0.0045094765
chicken -0.008064231 -0.0008947043 0.0063854824 0.008732827 -0.0050409418 -0.0026653064 -0.0060383542 0.001163181 0.0026561562 -0.009841496 0.0024130938 -0.008830425 0.0004066043 0.0047574933 -0.005252973 0.0002487821 -0.0021827808 -0.008697346 -0.0024063946 0.004448354 -0.008577155 -0.0059288577 -0.0005338239 0.008036922 0.00140351 0.009757473 -0.0076781707 0.008986444 -0.004732237 -0.0063491613 -0.007829645 0.0018436862 -0.0027477557 0.0075410386 -0.00051901955 0.0025223005 0.005959094 -0.008650433 -0.0020632765 -0.00479318 -0.008665758 0.0034147545 0.0024101557 -0.00240544 -0.0019157665 -0.006727686 -0.0032663983 0.0013089601 0.007735103 0.0070652757 -0.0035895775 0.003600161 -0.0025749544 -0.004720965 -0.0036280316 -0.006150268 0.003507135 -0.007788762 -0.00751065 -0.004501327 0.0074015637 0.0018241487 0.0054630907 0.008215406 -0.0062349895 -0.0046203122 0.007680447 0.0049402006 0.0046533593 0.008994952 0.008805702 -0.0026743184 0.0010478734 0.005488109 0.008893994 0.009838445 -0.008273681 -0.0051302323 0.00498431 0.0009617718 0.00015996331 0.007500948 0.006395502 -0.0072343084 -0.0026042648 -0.00849038 0.007044632 0.0027713773 -0.0022169414 0.0018927497 0.0076745274 0.008137182 0.0061636865 0.0031595565 0.0015580471 0.0081446385 0.0013181262 0.00043808352 -0.009551312 0.0025169416
homemade -0.00845509 0.0064733056 -0.0058004325 -0.0017513135 0.000983301 -0.00188754 -0.009125218 0.003995095 -0.0065749376 -0.008796957 0.0039060134 -0.00077173713 0.0065166135 -0.007013178 0.0007894013 -0.0006926901 0.0057435124 -0.0097336555 0.005935206 -0.008980775 -0.00777872 0.0007392626 -0.0026623993 -0.003894162 -0.0053066434 0.0041093808 -0.009329385 0.0011853516 0.0042019268 -0.00027912593 -0.00049435213 0.0071604606 -0.009568588 -0.009025861 0.0044378424 0.008730692 -0.0077948375 -0.008313061 -0.0006542024 -0.009034757 0.002123502 0.009234866 -0.006118792 -0.0067547974 0.008917222 -0.0007511947 -0.003751631 -0.0027215008 -0.008757715 -0.0046328017 -0.004143885 0.00024097832 0.00068469025 0.0076195425 0.006834994 -0.0015156578 -0.009967301 0.002594377 -0.0061163874 0.009103483 0.003802924 -0.0010103399 0.006611175 -0.0034911423 -0.0036878418 -0.00032031594 0.008408151 0.005937286 0.0015617426 0.003770387 -0.0029855804 0.009257308 -0.0071218032 -0.0032365134 -0.0052977516 0.008716124 -0.0031221458 -0.0023886915 0.007138695 -0.009701446 -0.0029150492 0.0028967746 -0.006269914 0.008759934 0.0011634202 -0.005235309 0.004933116 0.007992688 0.0009360486 0.0068162084 -0.006822898 -0.0036151684 0.0099289855 0.0056750276 0.0016029475 -0.0034910624 0.0044121514 0.0025327187 0.008359655 -8.437351e-06
sick 0.00859267 -0.0058641285 -0.0076089688 -0.0014053239 0.0029736205 -0.001989576 0.005885255 -0.008407785 -0.0090145245 0.007570594 0.0063338038 -0.004104111 -0.004014589 -0.003555649 -5.1996056e-05 0.009064306 0.0009519946 -0.002058781 -0.0034105673 -0.0020971498 -0.009196867 0.006830512 -0.009021849 -0.0030876463 -0.007122077 0.009062693 0.0057777087 -0.00048070197 0.0039126147 -0.0024237882 0.009811846 -0.0036248951 0.004864596 -0.0038065359 0.009547697 0.009507102 0.00622553 -0.00025250323 -0.0016906824 -0.008667889 0.009335282 -0.008445807 -0.0065610423 0.0055785133 -0.0022847392 0.007972993 -0.0078702 0.009189489 0.0022459102 -0.008555488 0.003947032 -0.00496363 0.0063902494 0.0065858476 -0.008762079 0.006456145 0.005260704 0.0064785564 -0.007059674 -0.0065498627 -0.008854547 0.005258608 -0.0040146974 0.004799223 0.0047923573 0.008087618 0.0022500067 -0.0010814399 0.001455104 0.0029844171 -0.008775375 -0.005968404 -0.00094451505 0.00488847 -0.00015605043 -0.009669305 -0.0006401483 0.0071442747 0.0063310442 0.0034695305 -0.004602836 -0.0037196905 -0.0020848594 -0.0059963753 -0.008609737 -0.0005707328 0.0018048036 0.0048343237 0.0035984998 0.008562108 -0.0067567034 0.009278081 -0.0033472837 0.0008056441 -0.0042532133 -0.004043308 -0.001486426 -0.0075148074 0.008967286 0.00455633
my -0.002260123 0.0019138817 0.00781169 -0.0056147412 0.0038140088 0.0007045588 0.0028981671 -0.002135268 -0.009876837 0.0058821645 -0.0014227888 -0.008322261 0.0007140416 -0.0061712153 0.0076768207 -0.0063994965 -0.0016459905 -0.00039804695 -0.004288254 -0.003425795 0.007344441 0.0018540483 -0.009373829 -0.00028138192 -0.0095333 -0.0031610692 0.0049551516 0.0037006745 -0.0057425927 0.0014593872 0.0058112903 -0.007499006 -0.0033763116 -0.002469534 -0.008896436 0.0021057986 0.0065081655 0.0024422458 0.0023730474 -0.0008116417 -0.0008099582 -0.0062700678 -0.00049501436 0.0065940376 0.0029703404 0.0005449312 0.007826769 0.0027979794 -0.0074225236 0.007307493 0.009553711 -0.0090841465 0.007226379 -0.007593502 -0.0003589656 0.0046087997 -0.0057411785 -0.007957722 -0.0072896704 -0.009894876 -0.0066660442 0.009550722 0.0029257655 -0.009062571 0.008502968 0.0072158775 0.007860888 0.009611157 -0.008672549 -0.0021934048 0.0020963189 0.002417177 0.0048356424 -0.007725994 0.0048181834 0.009934271 -0.008963869 0.007893214 0.0032067993 -0.004158853 -0.0015393106 -0.00851255 -0.0074858144 0.005517963 -0.003135897 0.009987848 -0.008018832 -0.007045843 0.006144605 0.007884088 0.0036904612 0.0072397394 0.0064854105 -0.005777186 0.008706138 -0.0063345144 -0.0028774566 -0.0059833066 0.0060888166 -0.004387095
funny 0.00307577 -0.0015842546 -0.001196326 -0.0058477926 -0.0057676993 -0.0035825646 0.00031732558 0.0014689433 -0.0033027946 0.001939708 -0.0056695305 0.00998629 -0.00082016585 -0.0069489707 -0.0018582523 0.007936342 -0.001100502 -0.0051538683 -0.008046085 -0.0058696973 -0.003196448 0.007720239 -0.0072237337 0.0014400983 -7.626414e-05 0.0039387345 -0.0079444675 0.007950479 -0.0027889276 0.0052995994 -0.009506632 0.0050889254 -0.008248977 -0.003251778 -0.0011872781 -0.003642206 -0.00073236943 2.3472308e-05 0.0045096828 -0.0022412944 -0.0040084813 -0.006172981 0.008324329 0.0046128607 0.009101685 0.0054835365 -0.0046111774 0.008278715 -0.006958591 0.0030443561 -0.0033556437 0.00026778935 0.0037600899 -0.0028218043 -0.004420328 -0.0019492912 0.0005203712 0.00645506 -0.0058552157 0.0046665277 -0.00370911 -0.007946053 -0.005604844 0.0018558884 0.00878845 0.007873713 0.009176957 0.006889963 -0.0029662393 -0.0024210883 0.008815731 0.0064811576 0.006012387 0.0068799295 0.0016215027 0.0023945929 -0.008207313 0.00753669 0.009444269 -0.0070817173 0.0011635136 0.008741148 0.0036550332 0.0069505847 0.007629596 -0.001918453 0.008863422 0.005986605 -0.0018971383 6.14655e-05 0.009707736 0.0058213235 -0.006685798 -0.0034905458 -0.0034888983 0.0031212235 0.0011050344 -0.008603022 0.0021710205 0.009618772
was 0.0023654199 0.00427998 0.0019583262 0.00811671 0.008880901 0.0031524897 -0.002442732 0.0036151551 -0.007711078 0.008009005 -0.0040055914 0.00991511 -0.009595546 -0.0025567776 0.00888657 -0.0040761693 -0.0019572824 0.005039391 0.009293278 -0.0003716243 -0.0067972345 0.00999401 -0.009523459 0.0012503415 0.0055629895 -0.007828523 -0.005631521 -0.009115233 -7.8715006e-05 0.0050073233 -0.008221829 -0.003085285 0.008394783 -0.0044768313 0.0031714663 0.0035165637 -0.0035751278 -0.0051787156 0.0083182035 -0.0025216371 0.008963868 -0.0024216026 0.003044534 0.0056003355 0.00056822586 0.0043986565 -0.005975169 0.008405161 -0.0016433927 -0.004416614 0.005119943 0.009918425 -0.005663243 0.0008343709 0.004334737 -0.0027526165 0.0006444191 0.008818511 0.0077182124 -0.0064556426 -0.00321033 0.009218467 -0.00032565347 -0.009562714 -0.00071859465 -0.0067955554 0.00092710694 0.0008191342 -0.0043944865 -0.0045894077 0.008790084 0.0045818635 0.0025748415 0.0018493015 0.008238224 -0.0049966867 0.006108735 -0.0009814012 -0.0076565933 -0.009696225 -0.0016873657 0.00812142 0.0022008668 -0.0089767715 0.0012123962 -0.0036238967 -0.004049203 0.008131418 0.005820934 0.00036032137 0.0024594055 0.00090056687 -0.009924681 0.0029935054 0.0071853683 0.0039881105 0.0024769567 -0.003548484 0.002331066 -0.0076294187
york 0.0042217006 0.00239662 -0.00041626152 -0.00059634063 0.0026456981 0.0022139126 0.0014798081 0.009149113 0.0035330837 0.0013856901 -0.002933548 -0.0060829404 -0.009320081 -0.0032603212 0.0043522986 0.007577637 0.00063827966 -0.0047757686 0.0036085416 -0.0039090454 -0.00075606507 0.008871029 0.0081673935 -0.00041436084 -0.005912127 0.0036963678 0.009809275 0.008675401 -0.0019160137 0.0071479203 0.009274077 -0.009564724 0.008890714 4.1114718e-06 -0.005197515 0.0036794583 0.008967587 -0.0072473404 0.0068645375 -0.00642785 -0.007779114 0.005501777 -0.004582206 0.0047690226 0.0073692813 0.009659974 0.0056990883 -0.008875106 0.0032388123 -0.008990259 -0.00035152008 0.009773115 -0.0051200897 0.004091398 -0.005729374 -0.008050623 0.008024662 0.0032416706 0.0073750135 0.0029369348 0.001151332 0.0037209822 -0.0084261 0.0065902057 -0.0044885874 0.0046257293 -0.005464105 0.0010415027 0.0040173265 -0.0024818107 -0.0075396826 -0.0060403906 -0.009935458 0.009685901 -0.0043839444 -0.0010681435 -0.009014951 -0.0045734267 -0.004891074 0.0030126113 0.005633942 0.0035122822 0.009853531 0.001894914 0.009862434 0.007554103 0.002775797 0.0021458613 -0.0075129173 -0.0023683093 0.0056477417 -0.008139201 0.0022606596 -0.0075770384 0.009656242 -0.00012368463 0.00092159444 -0.0047763805 0.0061089206 -0.0071213054
gave -0.007413065 0.0066191414 -0.003373073 -0.0009138209 0.005360237 0.004566975 0.00620774 0.007029024 0.0056143836 -0.008920668 0.0051444224 0.009124081 -0.0040064654 0.0010812568 -0.0032749018 -0.0034037002 0.008693166 -0.00028166917 0.0034082164 -0.00553279 0.0057744794 -0.003352024 -0.0049655964 0.002191203 0.009721378 -0.006131741 0.0035723308 -0.0009925013 -0.0071913176 -0.0043296427 -0.008215861 0.0055879145 -0.0027521334 -0.0052026147 0.0009976551 0.0045935432 0.009498915 -0.009734271 -0.00027542136 -0.0012302044 -0.0026973893 -0.00053053506 0.008128968 -0.0018769727 0.009336791 0.00038060852 -0.0010667774 0.006905033 0.00694275 0.0004561714 -0.00030045194 0.0063429745 -0.0038441224 0.004593802 -8.544537e-05 -0.0060772505 0.006445556 -0.0040327064 0.0022172912 -0.0068468642 0.0026870102 0.0055775405 0.0051112706 -0.008075284 -0.0059075737 0.007129658 0.0031152307 0.001099833 -0.006189267 -0.0013818903 -0.009226789 0.0012581103 -0.004566506 0.00075733155 0.0044863573 0.0023908431 -0.0071210386 0.0008517808 -0.006719837 -0.0038807907 0.0018977837 0.0079718055 -0.006512427 0.0023367486 0.0081435805 0.00990813 0.006165658 -0.007388061 0.003862701 0.008827617 0.004149974 0.0025162268 -0.001591421 0.0035770761 0.0041561923 0.008824812 -0.0038117857 -0.008750541 0.0065023634 -0.006221905
he -0.0005962567 0.0014158183 -0.0011886873 -0.004038266 0.00088048517 -0.009683622 0.0014064079 -0.0041590743 -0.005788946 0.0038040888 0.00146254 0.003631371 0.00089062896 -0.0095139 0.009985025 -0.0035247058 -0.0021914837 0.0071483813 8.586269e-05 0.0030427705 0.0022571872 0.0023897684 0.006768089 0.0094735855 -0.00056400005 -0.003416011 0.004552403 -0.008333325 0.00846137 0.0023983668 0.0060094614 0.002798372 -0.0013190763 0.0009554921 -0.0047996836 0.0090855565 0.0050369087 0.003607774 -0.0050160205 -0.00864909 0.007943752 0.0029498097 -0.004256177 -0.00866574 -0.0039640306 0.0014132801 -0.009206484 4.246537e-05 0.002797851 -0.009943361 -0.00013531458 -0.0060793934 -0.0036097264 -0.0016417055 -0.009982317 -0.0036194785 -0.0070097963 -0.007344166 0.0015966865 0.002348165 0.009278615 0.008861891 -0.006414769 -0.009219139 0.007886507 0.005425985 0.006936736 -0.002941752 -0.005232052 -0.004570953 -0.008353352 0.005868612 -0.0034587237 0.008642398 -0.0056758537 0.009613518 -0.0044990433 0.008663335 -0.005415087 -0.007515576 0.0076460135 -0.009764533 -0.008781722 0.0049529867 -0.009767969 0.0052831117 0.0036721558 -0.0070258803 0.0031418158 0.0014485833 0.008644749 0.0028813994 -0.005126417 -0.002343952 0.0068567884 -0.0066181133 0.00930973 -0.0032004523 -0.0046583414 -0.004359204
yo 0.0030915793 -0.009849998 0.0032169109 -0.004489345 0.009665789 -0.0050327578 -0.008015548 0.0035210392 0.008969245 0.0027435974 -0.0022714941 0.003505047 -0.008928385 -0.004143378 -0.0043907603 0.0018883353 -0.0063083027 -0.007588373 -0.0065239677 0.00528687 0.0027521213 0.008805815 0.0023227686 0.005308875 0.0043381634 0.0046295086 -0.004955446 0.0014397687 0.0002892057 0.005254687 -0.0066077486 -0.000722152 0.0040242183 -0.0048663076 -0.008508146 0.005574428 -0.0008516727 0.000337176 -0.006078184 0.008504401 0.00090499927 0.0017281439 -0.00040099837 0.00068494736 0.005791893 -0.009220587 0.002340715 -0.0055802823 0.009450182 0.0043712435 -0.0054913275 -0.0012276827 -0.005545114 0.008510168 0.009084768 0.0023017335 0.009649653 -0.004727889 0.002806671 -0.0050999485 -0.008777653 -0.004167814 -0.0013887177 -0.0056575774 -0.0045427624 0.0006424281 -0.00012814156 -0.008307128 0.0069271373 0.0015686596 -0.0095061045 -0.0014210647 -0.0075952653 0.0075795013 -0.0010384663 0.00781293 0.0050316993 -0.0040570525 -0.009068365 -0.006180901 0.008871134 -0.0015553092 -0.00030919048 0.000119125325 -0.008256243 0.004213854 -0.008202828 0.009418897 -0.008122406 0.007900672 -0.0019674601 -0.0020600646 -0.0022881208 0.0009848498 0.0024644295 0.001620472 -0.00058322266 0.0075823963 -0.0064411797 -0.007888531
